{"learner":{"attributes":{"best_iteration":"65","best_score":"4847.777106519843"},"feature_names":[],"feature_types":[],"gradient_booster":{"model":{"gbtree_model_param":{"num_parallel_tree":"1","num_trees":"116"},"iteration_indptr":[0,1,2,3,4,5,6,7,8,9,10,11,12,13,14,15,16,17,18,19,20,21,22,23,24,25,26,27,28,29,30,31,32,33,34,35,36,37,38,39,40,41,42,43,44,45,46,47,48,49,50,51,52,53,54,55,56,57,58,59,60,61,62,63,64,65,66,67,68,69,70,71,72,73,74,75,76,77,78,79,80,81,82,83,84,85,86,87,88,89,90,91,92,93,94,95,96,97,98,99,100,101,102,103,104,105,106,107,108,109,110,111,112,113,114,115,116],"tree_info":[0,0,0,0,0,0,0,0,0,0,0,0,0,0,0,0,0,0,0,0,0,0,0,0,0,0,0,0,0,0,0,0,0,0,0,0,0,0,0,0,0,0,0,0,0,0,0,0,0,0,0,0,0,0,0,0,0,0,0,0,0,0,0,0,0,0,0,0,0,0,0,0,0,0,0,0,0,0,0,0,0,0,0,0,0,0,0,0,0,0,0,0,0,0,0,0,0,0,0,0,0,0,0,0,0,0,0,0,0,0,0,0,0,0,0,0],"trees":[{"base_weights":[2.0386151E2,1.8793049E4,-4.734646E3,7.8926997E3,2.887901E4,-7.507924E3,-9.230683E2,6.0320454E3,5.8331256E2,1.1782168E3,1.5702482E3,-9.044928E3,-6.3681436E3,-3.3416492E3,2.019748E2,2.6118318E3,3.380716E2,-9.529488E3,-5.7653735E3,-6.811304E3,-4.8714927E3,-2.1604031E2,-2.9497966E3,-5.865967E2,1.962813E3,1.1858093E1,1.6885185E2,-5.158442E2,-4.1568317E2,-3.320698E1,-3.4021814E2,-3.942775E2,-2.9817603E2,-2.6085413E2,3.7632416E1,2.6177353E1,-1.685381E2,6.0867928E1,-6.124403E1,5.307086E1,1.9023122E2],"categories":[],"categories_nodes":[],"categories_segments":[],"categories_sizes":[],"default_left":[0,0,0,0,0,0,0,0,0,0,0,0,0,0,0,0,0,0,0,0,0,0,0,0,0,0,0,0,0,0,0,0,0,0,0,0,0,0,0,0,0],"id":0,"left_children":[1,3,5,7,9,11,13,15,-1,-1,-1,17,19,21,23,25,-1,27,29,31,33,-1,35,37,39,-1,-1,-1,-1,-1,-1,-1,-1,-1,-1,-1,-1,-1,-1,-1,-1],"loss_changes":[7.610172E10,1.8901717E10,6.9167913E9,5.2643686E8,4.681728E8,6.0635136E8,7.54394E8,1.2952499E8,0E0,0E0,0E0,1.9773235E8,1.1339776E8,2.101888E7,2.6497525E8,2.1004416E7,0E0,4.538368E7,1.1738381E8,1.0597683E8,1.0888333E8,0E0,9.826714E7,1.5348062E8,9.391357E7,0E0,0E0,0E0,0E0,0E0,0E0,0E0,0E0,0E0,0E0,0E0,0E0,0E0,0E0,0E0,0E0],"parents":[2147483647,0,0,1,1,2,2,3,3,4,4,5,5,6,6,7,7,11,11,12,12,13,13,14,14,15,15,17,17,18,18,19,19,20,20,22,22,23,23,24,24],"right_children":[2,4,6,8,10,12,14,16,-1,-1,-1,18,20,22,24,26,-1,28,30,32,34,-1,36,38,40,-1,-1,-1,-1,-1,-1,-1,-1,-1,-1,-1,-1,-1,-1,-1,-1],"split_conditions":[1E0,3.002E1,4.4E1,4.7E1,3.1E1,1E0,5E1,2E1,5.8331256E2,1.1782168E3,1.5702482E3,3.7E1,3.9E1,2.6695E1,5.9E1,2.1755E1,3.380716E2,2.4E1,3.8E1,2E0,4.1325E1,-2.1604031E2,2.77E1,2.74E1,1E0,1.1858093E1,1.6885185E2,-5.158442E2,-4.1568317E2,-3.320698E1,-3.4021814E2,-3.942775E2,-2.9817603E2,-2.6085413E2,3.7632416E1,2.6177353E1,-1.685381E2,6.0867928E1,-6.124403E1,5.307086E1,1.9023122E2],"split_indices":[5,1,0,0,0,2,0,0,0,0,0,0,0,1,0,1,0,0,0,2,1,0,1,1,2,0,0,0,0,0,0,0,0,0,0,0,0,0,0,0,0],"split_type":[0,0,0,0,0,0,0,0,0,0,0,0,0,0,0,0,0,0,0,0,0,0,0,0,0,0,0,0,0,0,0,0,0,0,0,0,0,0,0,0,0],"sum_hessian":[8.27E2,1.73E2,6.54E2,8.4E1,8.9E1,3.78E2,2.76E2,5.8E1,2.6E1,3.2E1,5.7E1,1.58E2,2.2E2,8.7E1,1.89E2,1.1E1,4.7E1,1.36E2,2.2E1,1.67E2,5.3E1,2.2E1,6.5E1,1.31E2,5.8E1,3E0,8E0,7.8E1,5.8E1,4E0,1.8E1,7E1,9.7E1,5E1,3E0,7E0,5.8E1,3.4E1,9.7E1,4E1,1.8E1],"tree_param":{"num_deleted":"0","num_feature":"7","num_nodes":"41","size_leaf_vector":"1"}},{"base_weights":[1.1198919E1,1.7933262E4,-4.5635186E3,7.2430503E3,2.7355191E4,-7.218344E3,-9.671741E2,5.3330186E3,5.539194E2,1.0862518E3,1.448184E3,-8.662494E3,-6.073683E3,-2.6591638E3,4.581539E2,2.44294E3,6.3307803E3,-9.084782E3,-5.466289E3,-6.420607E3,-4.6822427E3,-3.4639656E3,-1.7482798E3,1.9513512E3,-2.658891E1,2.7024073E1,1.6292795E2,2.4973701E2,3.4930283E2,-4.893942E2,-3.987162E2,-3.1878702E1,-3.251958E2,-3.7163324E2,-2.81386E2,-2.5533577E2,1.6227977E2,-2.0279036E2,-1.3764178E2,-1.0840532E0,-1.3055315E2,-3.1994638E1,2.1577327E2,-3.278856E1,6.576313E1],"categories":[],"categories_nodes":[],"categories_segments":[],"categories_sizes":[],"default_left":[0,0,0,0,0,0,0,0,0,0,0,0,0,0,0,0,0,0,0,0,0,0,0,0,0,0,0,0,0,0,0,0,0,0,0,0,0,0,0,0,0,0,0,0,0],"id":1,"left_children":[1,3,5,7,9,11,13,15,-1,-1,-1,17,19,21,23,25,27,29,31,33,35,37,39,41,43,-1,-1,-1,-1,-1,-1,-1,-1,-1,-1,-1,-1,-1,-1,-1,-1,-1,-1,-1,-1],"loss_changes":[6.8542124E10,1.6924676E10,6.3517655E9,5.34294E8,1.8580685E8,5.8050765E8,6.8612416E8,1.4601626E8,0E0,0E0,0E0,1.7574298E8,7.468851E7,8.924461E7,1.12243464E8,2.3065704E7,1.001088E6,3.593933E7,1.0608218E8,9.53897E7,1.7473645E8,1.7454528E7,9.379323E7,2.355493E8,1.0048627E8,0E0,0E0,0E0,0E0,0E0,0E0,0E0,0E0,0E0,0E0,0E0,0E0,0E0,0E0,0E0,0E0,0E0,0E0,0E0,0E0],"parents":[2147483647,0,0,1,1,2,2,3,3,4,4,5,5,6,6,7,7,11,11,12,12,13,13,14,14,15,15,16,16,17,17,18,18,19,19,20,20,21,21,22,22,23,23,24,24],"right_children":[2,4,6,8,10,12,14,16,-1,-1,-1,18,20,22,24,26,28,30,32,34,36,38,40,42,44,-1,-1,-1,-1,-1,-1,-1,-1,-1,-1,-1,-1,-1,-1,-1,-1,-1,-1,-1,-1],"split_conditions":[1E0,3E1,4.3E1,4.5E1,2.8E1,1E0,5.2E1,2.1E1,5.539194E2,1.0862518E3,1.448184E3,3.7E1,3.9E1,4.8E1,2.684E1,2.2515E1,2.47E1,2.4E1,3.8E1,2E0,4.1325E1,2E0,2.964E1,2.46E1,6E1,2.7024073E1,1.6292795E2,2.4973701E2,3.4930283E2,-4.893942E2,-3.987162E2,-3.1878702E1,-3.251958E2,-3.7163324E2,-2.81386E2,-2.5533577E2,1.6227977E2,-2.0279036E2,-1.3764178E2,-1.0840532E0,-1.3055315E2,-3.1994638E1,2.1577327E2,-3.278856E1,6.576313E1],"split_indices":[5,1,0,0,0,2,0,0,0,0,0,0,0,0,1,1,1,0,0,2,1,2,1,1,0,0,0,0,0,0,0,0,0,0,0,0,0,0,0,0,0,0,0,0,0],"split_type":[0,0,0,0,0,0,0,0,0,0,0,0,0,0,0,0,0,0,0,0,0,0,0,0,0,0,0,0,0,0,0,0,0,0,0,0,0,0,0,0,0,0,0,0,0],"sum_hessian":[8.34E2,1.69E2,6.65E2,8E1,8.9E1,3.82E2,2.83E2,5.5E1,2.5E1,2.3E1,6.6E1,1.66E2,2.16E2,1.29E2,1.54E2,1.5E1,4E1,1.45E2,2.1E1,1.7E2,4.6E1,6.7E1,6.2E1,3.7E1,1.17E2,5E0,1E1,1.6E1,2.4E1,8.4E1,6.1E1,4E0,1.7E1,7.1E1,9.9E1,4.4E1,2E0,3.4E1,3.3E1,2.1E1,4.1E1,1.8E1,1.9E1,8E1,3.7E1],"tree_param":{"num_deleted":"0","num_feature":"7","num_nodes":"45","size_leaf_vector":"1"}},{"base_weights":[-1.348201E2,1.6860865E4,-4.3644287E3,7.024969E3,2.5928852E4,-6.8668447E3,-1.006781E3,5.284463E3,5.3561633E2,1.0611576E3,1.4229188E3,-8.832445E3,-5.997774E3,-2.0274745E3,1.1332332E3,2.4255571E3,5.9153843E3,-4.5476938E2,-6.6370312E3,-7.23572E3,-5.362762E3,-3.37782E3,-1.2379421E3,4.8024927E2,2.4884912E3,1.7094824E1,1.5410612E2,2.2055449E2,3.250488E2,-1.9220575E2,-3.9641846E2,-3.8965735E2,-2.6046027E2,-1.176408E2,-2.8005023E2,-1.9570935E2,-1.3395018E2,-9.409466E1,-3.281543E0,-2.2920242E1,7.796687E1,4.280955E1,3.4351462E2],"categories":[],"categories_nodes":[],"categories_segments":[],"categories_sizes":[],"default_left":[0,0,0,0,0,0,0,0,0,0,0,0,0,0,0,0,0,0,0,0,0,0,0,0,0,0,0,0,0,0,0,0,0,0,0,0,0,0,0,0,0,0,0],"id":2,"left_children":[1,3,5,7,9,11,13,15,-1,-1,-1,17,19,21,23,25,27,-1,29,31,33,35,37,39,41,-1,-1,-1,-1,-1,-1,-1,-1,-1,-1,-1,-1,-1,-1,-1,-1,-1,-1],"loss_changes":[5.9881992E10,1.4623678E10,5.5973755E9,4.632384E8,4.1969664E8,5.995745E8,6.270071E8,8.846541E7,0E0,0E0,0E0,6.019072E6,1.718743E8,2.0264992E8,8.110634E7,1.5362944E7,1.184512E7,0E0,2.7228032E7,5.8811904E7,1.1661619E8,1.6126272E7,9.348544E7,6.553981E7,2.0869016E8,0E0,0E0,0E0,0E0,0E0,0E0,0E0,0E0,0E0,0E0,0E0,0E0,0E0,0E0,0E0,0E0,0E0,0E0],"parents":[2147483647,0,0,1,1,2,2,3,3,4,4,5,5,6,6,7,7,11,11,12,12,13,13,14,14,15,15,16,16,18,18,19,19,20,20,21,21,22,22,23,23,24,24],"right_children":[2,4,6,8,10,12,14,16,-1,-1,-1,18,20,22,24,26,28,-1,30,32,34,36,38,40,42,-1,-1,-1,-1,-1,-1,-1,-1,-1,-1,-1,-1,-1,-1,-1,-1,-1,-1],"split_conditions":[1E0,3.002E1,4.3E1,4.5E1,3.1E1,2.3E1,5.7E1,2E1,5.3561633E2,1.0611576E3,1.4229188E3,2E0,1E0,4.8E1,3.458E1,2.1755E1,2.318E1,-4.5476938E2,2.728E1,3.7E1,2.6E1,2E0,2E0,6E1,1E0,1.7094824E1,1.5410612E2,2.2055449E2,3.250488E2,-1.9220575E2,-3.9641846E2,-3.8965735E2,-2.6046027E2,-1.176408E2,-2.8005023E2,-1.9570935E2,-1.3395018E2,-9.409466E1,-3.281543E0,-2.2920242E1,7.796687E1,4.280955E1,3.4351462E2],"split_indices":[5,1,0,0,0,0,0,0,0,0,0,2,2,0,1,1,1,0,1,0,0,2,2,0,2,0,0,0,0,0,0,0,0,0,0,0,0,0,0,0,0,0,0],"split_type":[0,0,0,0,0,0,0,0,0,0,0,0,0,0,0,0,0,0,0,0,0,0,0,0,0,0,0,0,0,0,0,0,0,0,0,0,0,0,0,0,0,0,0],"sum_hessian":[8.31E2,1.65E2,6.66E2,8E1,8.5E1,3.81E2,2.85E2,5.6E1,2.4E1,3.3E1,5.2E1,1.14E2,2.67E2,1.93E2,9.2E1,1.1E1,4.5E1,9.9E1,1.5E1,8.7E1,1.8E2,7E1,1.23E2,6.3E1,2.9E1,3E0,8E0,1.5E1,3E1,6E0,9E0,6.6E1,2.1E1,1.4E1,1.66E2,3.7E1,3.3E1,7.9E1,4.4E1,3.4E1,2.9E1,2.2E1,7E0],"tree_param":{"num_deleted":"0","num_feature":"7","num_nodes":"43","size_leaf_vector":"1"}},{"base_weights":[4.1686157E1,1.5800259E4,-4.0251035E3,6.4771353E3,2.504978E4,-6.561961E3,-7.921973E2,5.045366E3,5.0723093E2,1.01913617E3,1.3444014E3,-8.207065E3,-5.786393E3,-2.4648154E3,6.013838E2,2.2739136E3,5.558313E3,-4.6158682E2,-7.5369634E3,-6.3443945E3,-4.926813E3,-3.2106821E3,-1.6376311E3,-1.7445557E2,1.8602737E3,9.758936E0,1.4725694E2,2.0696483E2,3.0683862E2,2.5269249E2,-3.8830576E2,-3.552535E2,-2.7948816E2,-2.6728085E2,-1.4398601E1,-1.8920845E2,-1.386383E2,5.758149E0,-1.1179421E2,6.7907684E1,-3.286251E1,1.1409027E2,3.1737418E0],"categories":[],"categories_nodes":[],"categories_segments":[],"categories_sizes":[],"default_left":[0,0,0,0,0,0,0,0,0,0,0,0,0,0,0,0,0,0,0,0,0,0,0,0,0,0,0,0,0,0,0,0,0,0,0,0,0,0,0,0,0,0,0],"id":3,"left_children":[1,3,5,7,9,11,13,15,-1,-1,-1,17,19,21,23,25,27,-1,29,31,33,35,37,39,41,-1,-1,-1,-1,-1,-1,-1,-1,-1,-1,-1,-1,-1,-1,-1,-1,-1,-1],"loss_changes":[5.4985986E10,1.5015006E10,5.588172E9,4.1615462E8,2.0692173E8,4.399012E8,7.03092E8,8.118707E7,0E0,0E0,0E0,1.2816384E7,9.488896E7,7.926694E7,1.6147944E8,1.6168764E7,1.9744512E7,0E0,2.6429491E8,4.983296E7,2.0827878E8,7.338304E6,7.051466E7,7.710601E7,4.757184E7,0E0,0E0,0E0,0E0,0E0,0E0,0E0,0E0,0E0,0E0,0E0,0E0,0E0,0E0,0E0,0E0,0E0,0E0],"parents":[2147483647,0,0,1,1,2,2,3,3,4,4,5,5,6,6,7,7,11,11,12,12,13,13,14,14,15,15,16,16,18,18,19,19,20,20,21,21,22,22,23,23,24,24],"right_children":[2,4,6,8,10,12,14,16,-1,-1,-1,18,20,22,24,26,28,-1,30,32,34,36,38,40,42,-1,-1,-1,-1,-1,-1,-1,-1,-1,-1,-1,-1,-1,-1,-1,-1,-1,-1],"split_conditions":[1E0,3.002E1,4.3E1,4.7E1,3.1E1,2.3E1,5.2E1,2E1,5.0723093E2,1.01913617E3,1.3444014E3,2.72E1,3.5E1,4.8E1,5.9E1,2.1755E1,2.318E1,-4.6158682E2,2.728E1,1E0,3.78E1,2.755E1,2.7835E1,2.684E1,3.743E1,9.758936E0,1.4725694E2,2.0696483E2,3.0683862E2,2.5269249E2,-3.8830576E2,-3.552535E2,-2.7948816E2,-2.6728085E2,-1.4398601E1,-1.8920845E2,-1.386383E2,5.758149E0,-1.1179421E2,6.7907684E1,-3.286251E1,1.1409027E2,3.1737418E0],"split_indices":[5,1,0,0,0,0,0,0,0,0,0,1,0,0,0,1,1,0,1,3,1,1,1,1,1,0,0,0,0,0,0,0,0,0,0,0,0,0,0,0,0,0,0],"split_type":[0,0,0,0,0,0,0,0,0,0,0,0,0,0,0,0,0,0,0,0,0,0,0,0,0,0,0,0,0,0,0,0,0,0,0,0,0,0,0,0,0,0,0],"sum_hessian":[8.56E2,1.75E2,6.81E2,8.8E1,8.7E1,3.81E2,3E2,6.5E1,2.3E1,2.8E1,5.9E1,1.19E2,2.62E2,1.36E2,1.64E2,1.1E1,5.4E1,4.2E1,7.7E1,1.55E2,1.07E2,7E1,6.6E1,1.02E2,6.2E1,3E0,8E0,1.8E1,3.6E1,1E0,7.6E1,7.3E1,8.2E1,9.8E1,9E0,2.7E1,4.3E1,1.7E1,4.9E1,2.4E1,7.8E1,5E1,1.2E1],"tree_param":{"num_deleted":"0","num_feature":"7","num_nodes":"43","size_leaf_vector":"1"}},{"base_weights":[-1.8641115E2,1.4919077E4,-3.912005E3,6.005271E3,2.3549158E4,-6.2764146E3,-7.86641E2,4.463799E3,4.804366E2,9.193439E2,1.2542186E3,-7.708928E3,-5.0845806E3,-2.334019E3,4.5993802E2,2.3147988E3,5.3296846E3,-8.0786807E3,-4.665535E3,-5.259016E3,-2.7743477E3,-3.1079731E3,-1.379273E3,-3.7253183E2,1.7079705E3,1.8114326E1,1.4056583E2,4.6402823E2,2.5034831E2,-4.3281363E2,-3.5626584E2,-9.4938965E0,-2.853731E2,-2.7925696E2,-1.9651262E2,-1.6992784E2,1.80325E2,-1.839792E2,-1.1481677E2,-3.2059017E1,-1.4691264E2,7.456349E1,-4.6583767E1,3.5337532E1,1.8860547E2],"categories":[],"categories_nodes":[],"categories_segments":[],"categories_sizes":[],"default_left":[0,0,0,0,0,0,0,0,0,0,0,0,0,0,0,0,0,0,0,0,0,0,0,0,0,0,0,0,0,0,0,0,0,0,0,0,0,0,0,0,0,0,0,0,0],"id":4,"left_children":[1,3,5,7,9,11,13,15,-1,-1,-1,17,19,21,23,25,27,29,31,33,35,37,39,41,43,-1,-1,-1,-1,-1,-1,-1,-1,-1,-1,-1,-1,-1,-1,-1,-1,-1,-1,-1,-1],"loss_changes":[4.7218414E10,1.2628443E10,4.9682913E9,4.181435E8,2.044928E8,6.147062E8,5.623918E8,9.931008E7,0E0,0E0,0E0,1.5585997E8,7.084339E7,9.177408E7,1.6894608E8,1.7401168E7,7.083392E6,2.202112E7,9.68457E7,6.298368E7,7.996763E7,2.4490304E7,6.7156344E7,1.0351837E8,1.3166674E8,0E0,0E0,0E0,0E0,0E0,0E0,0E0,0E0,0E0,0E0,0E0,0E0,0E0,0E0,0E0,0E0,0E0,0E0,0E0,0E0],"parents":[2147483647,0,0,1,1,2,2,3,3,4,4,5,5,6,6,7,7,11,11,12,12,13,13,14,14,15,15,16,16,17,17,18,18,19,19,20,20,21,21,22,22,23,23,24,24],"right_children":[2,4,6,8,10,12,14,16,-1,-1,-1,18,20,22,24,26,28,30,32,34,36,38,40,42,44,-1,-1,-1,-1,-1,-1,-1,-1,-1,-1,-1,-1,-1,-1,-1,-1,-1,-1,-1,-1],"split_conditions":[1E0,3.002E1,4.3E1,4.6E1,2.8E1,1E0,5.2E1,2.2E1,4.804366E2,9.193439E2,1.2542186E3,3.7E1,4E0,4.8E1,5.9E1,2.1755E1,1.78E1,2.4E1,3.8E1,3.9E1,3.44E1,2E0,5.1E1,2.684E1,1E0,1.8114326E1,1.4056583E2,4.6402823E2,2.5034831E2,-4.3281363E2,-3.5626584E2,-9.4938965E0,-2.853731E2,-2.7925696E2,-1.9651262E2,-1.6992784E2,1.80325E2,-1.839792E2,-1.1481677E2,-3.2059017E1,-1.4691264E2,7.456349E1,-4.6583767E1,3.5337532E1,1.8860547E2],"split_indices":[5,1,0,0,0,2,0,0,0,0,0,0,2,0,0,1,1,0,0,0,1,2,0,1,2,0,0,0,0,0,0,0,0,0,0,0,0,0,0,0,0,0,0,0,0],"split_type":[0,0,0,0,0,0,0,0,0,0,0,0,0,0,0,0,0,0,0,0,0,0,0,0,0,0,0,0,0,0,0,0,0,0,0,0,0,0,0,0,0,0,0,0,0],"sum_hessian":[8.37E2,1.65E2,6.72E2,8.2E1,8.3E1,3.82E2,2.9E2,5.9E1,2.3E1,2.2E1,6.1E1,1.71E2,2.11E2,1.29E2,1.61E2,1.8E1,4.1E1,1.51E2,2E1,1.95E2,1.6E1,7E1,5.9E1,9.7E1,6.4E1,4E0,1.4E1,1E0,4E1,8.9E1,6.2E1,4E0,1.6E1,1.54E2,4.1E1,1.5E1,1E0,3.9E1,3.1E1,4.1E1,1.8E1,2.2E1,7.5E1,4.4E1,2E1],"tree_param":{"num_deleted":"0","num_feature":"7","num_nodes":"45","size_leaf_vector":"1"}},{"base_weights":[-4.972172E1,-3.6640095E3,1.4075366E4,-5.8825464E3,-6.781214E2,6.0536885E3,2.2213203E4,-7.203172E3,-4.8507075E3,-2.5744797E3,3.282154E2,4.506998E3,4.6311505E2,9.31097E2,1.2048959E3,-4.102961E2,-6.139984E3,-5.527993E3,-4.1236196E3,-3.4646335E3,-2.2028748E3,-3.415539E2,1.6626256E3,2.5106924E3,5.2053647E3,-3.2953574E2,-2.2645946E2,-3.119031E2,-2.2256377E2,-1.526034E2,-2.3090758E2,-1.88641E2,-3.3615456E1,-9.183763E0,-1.4736626E2,-4.4924286E1,4.5307915E1,3.3283615E1,1.767821E2,2.4323523E1,1.741132E2,1.9464049E2,2.968112E2],"categories":[],"categories_nodes":[],"categories_segments":[],"categories_sizes":[],"default_left":[0,0,0,0,0,0,0,0,0,0,0,0,0,0,0,0,0,0,0,0,0,0,0,0,0,0,0,0,0,0,0,0,0,0,0,0,0,0,0,0,0,0,0],"id":5,"left_children":[1,3,5,7,9,11,13,15,17,19,21,23,-1,-1,-1,-1,25,27,29,31,33,35,37,39,41,-1,-1,-1,-1,-1,-1,-1,-1,-1,-1,-1,-1,-1,-1,-1,-1,-1,-1],"loss_changes":[4.359904E10,4.5005373E9,1.1224097E10,4.965028E8,5.561822E8,3.999378E8,1.3333709E8,1.297879E8,8.652749E7,2.5777216E7,1.7127354E8,7.336845E7,0E0,0E0,0E0,0E0,3.2588544E7,5.786163E7,4.472576E7,2.1559136E7,1.1069498E8,8.976017E7,1.1715426E8,3.3706176E7,2.005952E7,0E0,0E0,0E0,0E0,0E0,0E0,0E0,0E0,0E0,0E0,0E0,0E0,0E0,0E0,0E0,0E0,0E0,0E0],"parents":[2147483647,0,0,1,1,2,2,3,3,4,4,5,5,6,6,7,7,8,8,9,9,10,10,11,11,16,16,17,17,18,18,19,19,20,20,21,21,22,22,23,23,24,24],"right_children":[2,4,6,8,10,12,14,16,18,20,22,24,-1,-1,-1,-1,26,28,30,32,34,36,38,40,42,-1,-1,-1,-1,-1,-1,-1,-1,-1,-1,-1,-1,-1,-1,-1,-1,-1,-1],"split_conditions":[1E0,4.3E1,3.002E1,1E0,5E1,4.5E1,3.2E1,2.4E1,1E0,2.6695E1,5.9E1,2.2E1,4.6311505E2,9.31097E2,1.2048959E3,-4.102961E2,3.7E1,3.4E1,2.9E1,4E0,2.98E1,2E0,1E0,2.2515E1,2.47E1,-3.2953574E2,-2.2645946E2,-3.119031E2,-2.2256377E2,-1.526034E2,-2.3090758E2,-1.88641E2,-3.3615456E1,-9.183763E0,-1.4736626E2,-4.4924286E1,4.5307915E1,3.3283615E1,1.767821E2,2.4323523E1,1.741132E2,1.9464049E2,2.968112E2],"split_indices":[6,0,1,2,0,0,0,0,3,1,0,0,0,0,0,0,0,0,0,2,1,2,2,1,1,0,0,0,0,0,0,0,0,0,0,0,0,0,0,0,0,0,0],"split_type":[0,0,0,0,0,0,0,0,0,0,0,0,0,0,0,0,0,0,0,0,0,0,0,0,0,0,0,0,0,0,0,0,0,0,0,0,0,0,0,0,0,0,0],"sum_hessian":[8.52E2,6.79E2,1.73E2,3.89E2,2.9E2,8.8E1,8.5E1,1.68E2,2.21E2,1E2,1.9E2,6.1E1,2.7E1,3.3E1,5.2E1,8.3E1,8.5E1,1.11E2,1.1E2,2.7E1,7.3E1,1.27E2,6.3E1,1.7E1,4.4E1,6.4E1,2.1E1,6.4E1,4.7E1,3.7E1,7.3E1,2.4E1,3E0,2E1,5.3E1,8.8E1,3.9E1,4.2E1,2.1E1,6E0,1.1E1,1.8E1,2.6E1],"tree_param":{"num_deleted":"0","num_feature":"7","num_nodes":"43","size_leaf_vector":"1"}},{"base_weights":[-2.1122054E2,1.3662717E4,-3.4920479E3,6.177242E3,1.0629056E3,-5.401227E3,-3.1679124E3,3.4384543E3,3.3183768E2,-3.2107675E2,-4.413767E3,-3.9534705E3,-2.5873074E3,5.093999E3,1.9527076E3,-2.5146654E2,-2.5190515E3,-4.3917026E3,-2.5679402E3,-3.329976E2,-2.7957754E3,-1.0911181E1,3.100044E2,4.2482605E1,1.1813134E2,3.905223E1,-2.1236021E2,-2.0616394E2,-3.4166968E2,-7.988308E1,-1.7748245E2,-7.926696E1,2.4702957E2,-1.6661557E2,-1.1326196E2],"categories":[],"categories_nodes":[],"categories_segments":[],"categories_sizes":[],"default_left":[0,0,0,0,0,0,0,0,0,0,0,0,0,0,0,0,0,0,0,0,0,0,0,0,0,0,0,0,0,0,0,0,0,0,0],"id":6,"left_children":[1,3,5,7,-1,9,11,13,-1,-1,15,17,19,21,23,-1,25,27,29,31,33,-1,-1,-1,-1,-1,-1,-1,-1,-1,-1,-1,-1,-1,-1],"loss_changes":[3.855593E10,9.079222E9,4.0679014E8,8.163558E7,0E0,7.039334E7,2.5795738E8,2.4488992E7,0E0,0E0,4.9145664E7,1.3930368E8,1.5932237E8,3.6607776E7,2.06206E6,0E0,8.886331E7,9.438515E7,5.3385824E7,2.0596253E8,8.126285E7,0E0,0E0,0E0,0E0,0E0,0E0,0E0,0E0,0E0,0E0,0E0,0E0,0E0,0E0],"parents":[2147483647,0,0,1,1,2,2,3,3,5,5,6,6,7,7,10,10,11,11,12,12,13,13,14,14,16,16,17,17,18,18,19,19,20,20],"right_children":[2,4,6,8,-1,10,12,14,-1,-1,16,18,20,22,24,-1,26,28,30,32,34,-1,-1,-1,-1,-1,-1,-1,-1,-1,-1,-1,-1,-1,-1],"split_conditions":[1E0,3.002E1,2.394E1,2.261E1,1.0629056E3,1E0,1E0,2.0045E1,3.3183768E2,-3.2107675E2,2.299E1,3.591E1,2.5555E1,1.748E1,2.1755E1,-2.5146654E2,2.3275E1,3.458E1,3.949E1,2.5365E1,1E0,-1.0911181E1,3.100044E2,4.2482605E1,1.1813134E2,3.905223E1,-2.1236021E2,-2.0616394E2,-3.4166968E2,-7.988308E1,-1.7748245E2,-7.926696E1,2.4702957E2,-1.6661557E2,-1.1326196E2],"split_indices":[5,1,1,1,0,3,2,1,0,0,1,1,1,1,1,0,1,1,1,1,3,0,0,0,0,0,0,0,0,0,0,0,0,0,0],"split_type":[0,0,0,0,0,0,0,0,0,0,0,0,0,0,0,0,0,0,0,0,0,0,0,0,0,0,0,0,0,0,0,0,0,0,0],"sum_hessian":[8.45E2,1.61E2,6.84E2,8.2E1,7.9E1,9.7E1,5.87E2,1.3E1,6.9E1,4.5E1,5.2E1,2.47E2,3.4E2,5E0,8E0,3.8E1,1.4E1,1.86E2,6.1E1,2.9E1,3.11E2,1E0,4E0,3E0,5E0,5E0,9E0,1.7E2,1.6E1,3.2E1,2.9E1,2.4E1,5E0,1.52E2,1.59E2],"tree_param":{"num_deleted":"0","num_feature":"7","num_nodes":"35","size_leaf_vector":"1"}},{"base_weights":[-1.7174513E2,1.3026301E4,-3.5049202E3,5.347002E3,2.029578E4,-5.160937E3,-2.9866962E2,3.801149E3,4.3543512E2,8.010626E2,1.1115258E3,-6.9777827E3,-4.4846265E3,-1.1723226E3,9.383317E2,1.8866677E3,4.642331E3,-7.2953613E3,-4.7728735E3,-5.614248E3,-3.9971992E3,2.5309901E2,-1.7022596E3,4.9983618E2,1.8134059E3,1.5251465E1,1.1315066E2,9.949751E1,2.5200847E2,-2.9042395E2,-3.873584E2,-1.050368E2,-3.350255E2,-3.0759995E2,-2.1354546E2,-2.2429459E2,-1.559958E2,-1.2194936E2,7.947038E1,-1.3199016E2,-7.019903E1,-3.225945E1,3.459744E1,3.296609E1,2.1432292E2],"categories":[],"categories_nodes":[],"categories_segments":[],"categories_sizes":[],"default_left":[0,0,0,0,0,0,0,0,0,0,0,0,0,0,0,0,0,0,0,0,0,0,0,0,0,0,0,0,0,0,0,0,0,0,0,0,0,0,0,0,0,0,0,0,0],"id":7,"left_children":[1,3,5,7,9,11,13,15,-1,-1,-1,17,19,21,23,25,27,29,31,33,35,37,39,41,43,-1,-1,-1,-1,-1,-1,-1,-1,-1,-1,-1,-1,-1,-1,-1,-1,-1,-1,-1,-1],"loss_changes":[3.752633E10,9.493289E9,3.6142986E9,4.0861594E8,3.716055E8,5.2041626E8,2.5290544E8,8.78672E7,0E0,0E0,0E0,4.920781E7,1.5926016E8,1.039184E8,3.6314056E7,1.121456E7,3.3234176E7,2.419456E7,7.864038E7,4.3796224E7,8.632499E7,1.4057995E8,2.425872E7,1.4964701E7,8.8505384E7,0E0,0E0,0E0,0E0,0E0,0E0,0E0,0E0,0E0,0E0,0E0,0E0,0E0,0E0,0E0,0E0,0E0,0E0,0E0,0E0],"parents":[2147483647,0,0,1,1,2,2,3,3,4,4,5,5,6,6,7,7,11,11,12,12,13,13,14,14,15,15,16,16,17,17,18,18,19,19,20,20,21,21,22,22,23,23,24,24],"right_children":[2,4,6,8,10,12,14,16,-1,-1,-1,18,20,22,24,26,28,30,32,34,36,38,40,42,44,-1,-1,-1,-1,-1,-1,-1,-1,-1,-1,-1,-1,-1,-1,-1,-1,-1,-1,-1,-1],"split_conditions":[1E0,3.002E1,4.7E1,4.5E1,3.1E1,2.3E1,5.7E1,2.318E1,4.3543512E2,8.010626E2,1.1115258E3,2E0,1E0,2.7835E1,1E0,2E1,2E1,1.9E1,2.794E1,3.7E1,3.9E1,2.486E1,3.08E1,2.46E1,6.2E1,1.5251465E1,1.1315066E2,9.949751E1,2.5200847E2,-2.9042395E2,-3.873584E2,-1.050368E2,-3.350255E2,-3.0759995E2,-2.1354546E2,-2.2429459E2,-1.559958E2,-1.2194936E2,7.947038E1,-1.3199016E2,-7.019903E1,-3.225945E1,3.459744E1,3.296609E1,2.1432292E2],"split_indices":[5,1,0,0,0,0,0,1,0,0,0,2,2,1,2,0,0,0,1,0,0,1,1,1,0,0,0,0,0,0,0,0,0,0,0,0,0,0,0,0,0,0,0,0,0],"split_type":[0,0,0,0,0,0,0,0,0,0,0,0,0,0,0,0,0,0,0,0,0,0,0,0,0,0,0,0,0,0,0,0,0,0,0,0,0,0,0,0,0,0,0,0,0],"sum_hessian":[8.51E2,1.71E2,6.8E2,8.4E1,8.7E1,4.48E2,2.32E2,5.9E1,2.5E1,3E1,5.7E1,1.19E2,3.29E2,1.36E2,9.6E1,1.9E1,4E1,1.02E2,1.7E1,9.6E1,2.33E2,3.7E1,9.9E1,6.5E1,3.1E1,4E0,1.5E1,6E0,3.4E1,2.7E1,7.5E1,8E0,9E0,6.6E1,3E1,1.47E2,8.6E1,1.2E1,2.5E1,2.2E1,7.7E1,9E0,5.6E1,2.2E1,9E0],"tree_param":{"num_deleted":"0","num_feature":"7","num_nodes":"45","size_leaf_vector":"1"}},{"base_weights":[-8.74601E1,1.2329458E4,-3.2053162E3,5.090573E3,1.9340805E4,-5.309856E3,-5.269688E2,3.7980398E3,4.020366E2,7.5437335E2,1.0283573E3,-3.3283386E2,-4.6524062E3,-1.9726554E3,6.9135034E2,2.0655251E3,4.4752427E3,-4.9534116E3,-3.9927976E3,-2.580184E3,-1.1961259E3,1.8760712E2,1.4288578E3,6.3039675E0,1.2106457E2,9.137074E1,2.3140723E2,-1.8143881E2,-2.5815076E2,-2.0732776E2,-8.325825E1,-1.1519258E2,-1.7018498E2,5.138756E1,-8.752057E1,8.59331E1,-1.3910349E1,8.673048E1,2.4449933E0],"categories":[],"categories_nodes":[],"categories_segments":[],"categories_sizes":[],"default_left":[0,0,0,0,0,0,0,0,0,0,0,0,0,0,0,0,0,0,0,0,0,0,0,0,0,0,0,0,0,0,0,0,0,0,0,0,0,0,0],"id":8,"left_children":[1,3,5,7,9,11,13,15,-1,-1,-1,-1,17,19,21,23,25,27,29,31,33,35,37,-1,-1,-1,-1,-1,-1,-1,-1,-1,-1,-1,-1,-1,-1,-1,-1],"loss_changes":[3.2791702E10,8.5297787E9,3.8132403E9,2.935813E8,1.3827277E8,3.046226E8,5.2799478E8,6.2325376E7,0E0,0E0,0E0,0E0,3.1446528E7,6.154544E7,6.0288776E7,1.280452E7,8.951296E6,2.929792E7,2.3874048E7,9.453216E6,7.8224104E7,7.037047E7,2.7762208E7,0E0,0E0,0E0,0E0,0E0,0E0,0E0,0E0,0E0,0E0,0E0,0E0,0E0,0E0,0E0,0E0],"parents":[2147483647,0,0,1,1,2,2,3,3,4,4,5,5,6,6,7,7,12,12,13,13,14,14,15,15,16,16,17,17,18,18,19,19,20,20,21,21,22,22],"right_children":[2,4,6,8,10,12,14,16,-1,-1,-1,-1,18,20,22,24,26,28,30,32,34,36,38,-1,-1,-1,-1,-1,-1,-1,-1,-1,-1,-1,-1,-1,-1,-1,-1],"split_conditions":[1E0,3.01E1,4.3E1,4.5E1,2.8E1,2.4E1,5.2E1,2.318E1,4.020366E2,7.5437335E2,1.0283573E3,-3.3283386E2,3.7E1,4.8E1,5.9E1,2E1,1.9E1,2.6E1,4.1325E1,3.54E1,2.74E1,2.684E1,3.743E1,6.3039675E0,1.2106457E2,9.137074E1,2.3140723E2,-1.8143881E2,-2.5815076E2,-2.0732776E2,-8.325825E1,-1.1519258E2,-1.7018498E2,5.138756E1,-8.752057E1,8.59331E1,-1.3910349E1,8.673048E1,2.4449933E0],"split_indices":[5,1,0,0,0,0,0,1,0,0,0,0,0,0,0,0,0,0,1,1,1,1,1,0,0,0,0,0,0,0,0,0,0,0,0,0,0,0,0],"split_type":[0,0,0,0,0,0,0,0,0,0,0,0,0,0,0,0,0,0,0,0,0,0,0,0,0,0,0,0,0,0,0,0,0,0,0,0,0,0,0],"sum_hessian":[8.45E2,1.69E2,6.76E2,8.4E1,8.5E1,3.78E2,2.98E2,6E1,2.4E1,2.2E1,6.3E1,1.21E2,2.57E2,1.36E2,1.62E2,1.8E1,4.2E1,1.72E2,8.5E1,7.5E1,6.1E1,9.7E1,6.5E1,3E0,1.5E1,3E0,3.9E1,2.6E1,1.46E2,7.9E1,6E0,5.9E1,1.6E1,1.2E1,4.9E1,2.2E1,7.5E1,5.3E1,1.2E1],"tree_param":{"num_deleted":"0","num_feature":"7","num_nodes":"39","size_leaf_vector":"1"}},{"base_weights":[5.8572517E1,1.1703085E4,-2.9223708E3,5.113076E3,9.078506E2,-3.7084617E3,-2.3057637E3,2.8157537E3,5.6797827E3,-2.6276642E2,-3.4910798E3,-2.2310718E2,-2.0579749E3,5.193036E3,2.0454485E3,5.12269E3,3.3803354E2,6.0894763E2,-3.557782E3,-1.2350806E3,-2.3861094E3,-1.1177271E1,3.536539E2,1.2684511E2,7.484431E1,2.8103696E2,1.8720839E2,-1.4373293E2,3.6358432E2,-1.8680856E2,-1.344411E2,-9.703634E1,2.2629843E1,-1.9981168E2,-1.0140011E2],"categories":[],"categories_nodes":[],"categories_segments":[],"categories_sizes":[],"default_left":[0,0,0,0,0,0,0,0,0,0,0,0,0,0,0,0,0,0,0,0,0,0,0,0,0,0,0,0,0,0,0,0,0,0,0],"id":9,"left_children":[1,3,5,7,-1,9,11,13,15,-1,17,-1,19,21,23,25,-1,27,29,31,33,-1,-1,-1,-1,-1,-1,-1,-1,-1,-1,-1,-1,-1,-1],"loss_changes":[2.9122548E10,7.180038E9,3.152348E8,9.597133E7,0E0,7.984128E7,1.9225805E8,2.4171328E7,6.313472E6,0E0,7.299814E7,0E0,8.885978E7,4.231476E7,5.16036E5,1.259712E7,0E0,1.369554E8,2.9482496E7,1.1877781E8,1.3143206E8,0E0,0E0,0E0,0E0,0E0,0E0,0E0,0E0,0E0,0E0,0E0,0E0,0E0,0E0],"parents":[2147483647,0,0,1,1,2,2,3,3,5,5,6,6,7,7,8,8,10,10,12,12,13,13,14,14,15,15,17,17,18,18,19,19,20,20],"right_children":[2,4,6,8,-1,10,12,14,16,-1,18,-1,20,22,24,26,-1,28,30,32,34,-1,-1,-1,-1,-1,-1,-1,-1,-1,-1,-1,-1,-1,-1],"split_conditions":[1E0,3.002E1,1E0,2.261E1,9.078506E2,2.318E1,2.299E1,1.86E1,2.82E1,-2.6276642E2,2.3275E1,-2.2310718E2,2.794E1,1.748E1,2.0425E1,2.7E1,3.3803354E2,2.32E1,3.74E1,2.679E1,2.964E1,-1.1177271E1,3.536539E2,1.2684511E2,7.484431E1,2.8103696E2,1.8720839E2,-1.4373293E2,3.6358432E2,-1.8680856E2,-1.344411E2,-9.703634E1,2.2629843E1,-1.9981168E2,-1.0140011E2],"split_indices":[5,1,2,1,0,1,1,1,1,0,1,0,1,1,1,1,0,1,1,1,1,0,0,0,0,0,0,0,0,0,0,0,0,0,0],"split_type":[0,0,0,0,0,0,0,0,0,0,0,0,0,0,0,0,0,0,0,0,0,0,0,0,0,0,0,0,0,0,0,0,0,0,0],"sum_hessian":[8.37E2,1.7E2,6.67E2,8.5E1,8.5E1,2.91E2,3.76E2,1.8E1,6.7E1,3.3E1,2.58E2,3.7E1,3.39E2,3E0,1.5E1,4.8E1,1.9E1,4E0,2.54E2,9.8E1,2.41E2,1E0,2E0,6E0,9E0,3.3E1,1.5E1,3E0,1E0,2.08E2,4.6E1,6.9E1,2.9E1,4.2E1,1.99E2],"tree_param":{"num_deleted":"0","num_feature":"7","num_nodes":"35","size_leaf_vector":"1"}},{"base_weights":[2.8839804E1,1.1170768E4,-2.8814082E3,4.7259805E3,1.778542E4,-4.698454E3,-4.98732E2,3.3806467E3,7.439247E3,1.5581426E4,1.0275884E3,-5.9240186E3,-3.7802068E3,-1.2596455E3,1.134822E3,1.3205793E3,3.8486514E3,3.148475E2,4.639012E2,6.207271E2,9.026965E2,-6.213147E3,-3.1094521E3,-3.9217493E3,-1.8593342E3,-2.1884165E3,-7.822974E2,4.3246088E2,2.595365E3,1.5287134E1,9.583172E1,4.2511465E2,1.7900815E2,-3.1482874E2,-8.490889E1,1.2013104E2,-2.2311133E2,-2.0831212E2,-1.4547166E2,-1.9507162E2,4.628526E1,-1.3605682E2,-7.4099754E1,2.4495684E1,-6.2082882E1,1.1224147E1,8.3924736E1,5.4751698E1,3.292198E2],"categories":[],"categories_nodes":[],"categories_segments":[],"categories_sizes":[],"default_left":[0,0,0,0,0,0,0,0,0,0,0,0,0,0,0,0,0,0,0,0,0,0,0,0,0,0,0,0,0,0,0,0,0,0,0,0,0,0,0,0,0,0,0,0,0,0,0,0,0],"id":10,"left_children":[1,3,5,7,9,11,13,15,17,19,-1,21,23,25,27,29,31,-1,-1,-1,-1,33,35,37,39,41,43,45,47,-1,-1,-1,-1,-1,-1,-1,-1,-1,-1,-1,-1,-1,-1,-1,-1,-1,-1,-1,-1],"loss_changes":[2.7399539E10,7.3762017E9,2.8983757E9,3.033728E8,2.0411597E8,4.052475E8,3.631405E8,5.469312E7,2.489216E6,1.8303488E8,0E0,1.1169741E8,5.252275E7,8.651405E7,9.4279656E7,7.277686E6,3.2032896E7,0E0,0E0,0E0,0E0,4.3925504E7,1.3748307E8,3.8369536E7,1.0029608E8,2.1181088E7,7.833393E7,1.6208648E7,1.7233589E8,0E0,0E0,0E0,0E0,0E0,0E0,0E0,0E0,0E0,0E0,0E0,0E0,0E0,0E0,0E0,0E0,0E0,0E0,0E0,0E0],"parents":[2147483647,0,0,1,1,2,2,3,3,4,4,5,5,6,6,7,7,8,8,9,9,11,11,12,12,13,13,14,14,15,15,16,16,21,21,22,22,23,23,24,24,25,25,26,26,27,27,28,28],"right_children":[2,4,6,8,10,12,14,16,18,20,-1,22,24,26,28,30,32,-1,-1,-1,-1,34,36,38,40,42,44,46,48,-1,-1,-1,-1,-1,-1,-1,-1,-1,-1,-1,-1,-1,-1,-1,-1,-1,-1,-1,-1],"split_conditions":[1E0,3.002E1,4.3E1,4.5E1,4.5E1,1E0,5.7E1,2E1,5.7E1,3.54E1,1.0275884E3,3.7E1,4E0,4.8E1,1E0,2.527E1,1.78E1,3.148475E2,4.639012E2,6.207271E2,9.026965E2,4.0565E1,3.8E1,3.9E1,2.964E1,2E0,2.7835E1,3.9995E1,3.432E1,1.5287134E1,9.583172E1,4.2511465E2,1.7900815E2,-3.1482874E2,-8.490889E1,1.2013104E2,-2.2311133E2,-2.0831212E2,-1.4547166E2,-1.9507162E2,4.628526E1,-1.3605682E2,-7.4099754E1,2.4495684E1,-6.2082882E1,1.1224147E1,8.3924736E1,5.4751698E1,3.292198E2],"split_indices":[5,1,0,0,0,2,0,0,0,1,0,0,2,0,2,1,1,0,0,0,0,1,0,0,1,2,1,1,1,0,0,0,0,0,0,0,0,0,0,0,0,0,0,0,0,0,0,0,0],"split_type":[0,0,0,0,0,0,0,0,0,0,0,0,0,0,0,0,0,0,0,0,0,0,0,0,0,0,0,0,0,0,0,0,0,0,0,0,0,0,0,0,0,0,0,0,0,0,0,0,0],"sum_hessian":[8.43E2,1.74E2,6.69E2,8.9E1,8.5E1,3.79E2,2.9E2,6.1E1,2.8E1,5.1E1,3.4E1,1.6E2,2.19E2,1.98E2,9.2E1,1.2E1,4.9E1,2E1,8E0,2.5E1,2.6E1,1.44E2,1.6E1,2.03E2,1.6E1,6.6E1,1.32E2,6.3E1,2.9E1,5E0,7E0,1E0,4.8E1,1.41E2,3E0,3E0,1.3E1,1.61E2,4.2E1,9E0,7E0,3.6E1,3E1,3.5E1,9.7E1,5.5E1,8E0,2.2E1,7E0],"tree_param":{"num_deleted":"0","num_feature":"7","num_nodes":"49","size_leaf_vector":"1"}},{"base_weights":[-1.5567961E2,-2.7500894E3,1.0411587E4,-4.5312993E3,-3.8818097E2,4.450165E3,1.639144E4,-5.738579E3,-3.6298997E3,-1.7334373E3,7.466751E2,3.3572212E3,3.447612E2,6.4989355E2,9.0496545E2,-6.133842E3,-3.714312E3,-4.268846E3,-3.1183345E3,-2.279455E3,-8.924214E2,2.1931235E2,1.4596707E3,9.875897E2,3.6022249E3,-3.2905283E2,-2.65103E2,-1.3335623E2,-2.1483067E2,-2.3560216E2,-9.660528E1,-2.2556568E1,-1.6712224E2,-1.869799E2,-9.701644E1,-8.37914E1,1.1611669E2,-1.2859569E1,4.367317E1,9.737679E1,-4.693362E1,1.3335869E1,9.2992355E1,4.1448682E2,1.6786856E2],"categories":[],"categories_nodes":[],"categories_segments":[],"categories_sizes":[],"default_left":[0,0,0,0,0,0,0,0,0,0,0,0,0,0,0,0,0,0,0,0,0,0,0,0,0,0,0,0,0,0,0,0,0,0,0,0,0,0,0,0,0,0,0,0,0],"id":11,"left_children":[1,3,5,7,9,11,13,15,17,19,21,23,-1,-1,-1,25,27,29,31,33,35,37,39,41,43,-1,-1,-1,-1,-1,-1,-1,-1,-1,-1,-1,-1,-1,-1,-1,-1,-1,-1,-1,-1],"loss_changes":[2.294826E10,2.825382E9,5.8090435E9,3.9596595E8,4.4402928E8,2.0132531E8,2.4000102E8,1.0683546E8,5.925197E7,5.904067E7,5.908903E7,3.1276544E7,0E0,0E0,0E0,1.4952448E7,6.223968E6,9.031667E7,7.440614E7,3.235776E7,1.3988867E8,2.890154E7,8.022264E7,3.9054505E6,3.4147136E7,0E0,0E0,0E0,0E0,0E0,0E0,0E0,0E0,0E0,0E0,0E0,0E0,0E0,0E0,0E0,0E0,0E0,0E0,0E0,0E0],"parents":[2147483647,0,0,1,1,2,2,3,3,4,4,5,5,6,6,7,7,8,8,9,9,10,10,11,11,15,15,16,16,17,17,18,18,19,19,20,20,21,21,22,22,23,23,24,24],"right_children":[2,4,6,8,10,12,14,16,18,20,22,24,-1,-1,-1,26,28,30,32,34,36,38,40,42,44,-1,-1,-1,-1,-1,-1,-1,-1,-1,-1,-1,-1,-1,-1,-1,-1,-1,-1,-1,-1],"split_conditions":[1E0,4.3E1,3.01E1,1E0,5.2E1,4.5E1,3.1E1,3.5E1,2E0,2E0,1E0,1.9E1,3.447612E2,6.4989355E2,9.0496545E2,2.4E1,3.8E1,3.53E1,2E1,4.5E1,5E1,6E1,3.6955E1,2.527E1,1.78E1,-3.2905283E2,-2.65103E2,-1.3335623E2,-2.1483067E2,-2.3560216E2,-9.660528E1,-2.2556568E1,-1.6712224E2,-1.869799E2,-9.701644E1,-8.37914E1,1.1611669E2,-1.2859569E1,4.367317E1,9.737679E1,-4.693362E1,1.3335869E1,9.2992355E1,4.1448682E2,1.6786856E2],"split_indices":[6,0,1,2,0,0,0,0,2,2,2,0,0,0,0,0,0,1,0,0,0,0,1,1,1,0,0,0,0,0,0,0,0,0,0,0,0,0,0,0,0,0,0,0,0],"split_type":[0,0,0,0,0,0,0,0,0,0,0,0,0,0,0,0,0,0,0,0,0,0,0,0,0,0,0,0,0,0,0,0,0,0,0,0,0,0,0,0,0,0,0,0,0],"sum_hessian":[8.35E2,6.71E2,1.64E2,3.82E2,2.89E2,8.3E1,8.1E1,1.61E2,2.21E2,1.32E2,1.57E2,5.9E1,2.4E1,3E1,5.1E1,1.33E2,2.8E1,9.5E1,1.26E2,7.9E1,5.3E1,9.1E1,6.6E1,6E0,5.3E1,8.2E1,5.1E1,1.2E1,1.6E1,7.9E1,1.6E1,1E1,1.16E2,1.3E1,6.6E1,4.3E1,1E1,5.3E1,3.8E1,5.5E1,1.1E1,4E0,2E0,1E0,5.2E1],"tree_param":{"num_deleted":"0","num_feature":"7","num_nodes":"45","size_leaf_vector":"1"}},{"base_weights":[-1.2771526E1,1.0282287E4,-2.6018372E3,4.288427E3,1.588238E4,-4.3217046E3,-3.214544E2,3.0628584E3,3.3584537E2,1.386242E4,9.383849E2,-5.708453E3,-3.674994E3,-8.8122894E2,1.7094987E3,4.041246E2,2.8288918E3,5.5218335E2,8.0043805E2,-3.23561E2,-5.1984507E3,-4.1276035E3,-3.2318315E3,-1.7419066E3,-2.4208522E2,2.090511E3,8.325781E1,7.653101E1,1.7271019E2,2.8147232E2,-2.7074973E2,-2.2939949E2,-1.577438E2,-6.9133606E1,-1.8345853E2,-1.2936833E2,-7.142519E1,2.37198E1,-5.5488464E1,5.9777615E1,2.4497488E2,-7.69332E0,4.624803E1],"categories":[],"categories_nodes":[],"categories_segments":[],"categories_sizes":[],"default_left":[0,0,0,0,0,0,0,0,0,0,0,0,0,0,0,0,0,0,0,0,0,0,0,0,0,0,0,0,0,0,0,0,0,0,0,0,0,0,0,0,0,0,0],"id":12,"left_children":[1,3,5,7,9,11,13,15,-1,17,-1,19,21,23,25,-1,27,-1,-1,-1,29,31,33,35,37,39,41,-1,-1,-1,-1,-1,-1,-1,-1,-1,-1,-1,-1,-1,-1,-1,-1],"loss_changes":[2.2416603E10,5.604571E9,2.6341647E9,2.2645747E8,2.468905E8,3.2250573E8,3.3120042E8,4.4077824E7,0E0,1.559552E8,0E0,1.3041152E7,3.9613184E7,1.2500038E8,3.886187E7,0E0,4.0175104E7,0E0,0E0,0E0,2.110263E8,4.24E7,1.0652851E8,2.2006016E7,8.258814E7,1.2235267E8,2.7369655E6,0E0,0E0,0E0,0E0,0E0,0E0,0E0,0E0,0E0,0E0,0E0,0E0,0E0,0E0,0E0,0E0],"parents":[2147483647,0,0,1,1,2,2,3,3,4,4,5,5,6,6,7,7,9,9,11,11,12,12,13,13,14,14,16,16,20,20,21,21,22,22,23,23,24,24,25,25,26,26],"right_children":[2,4,6,8,10,12,14,16,-1,18,-1,20,22,24,26,-1,28,-1,-1,-1,30,32,34,36,38,40,42,-1,-1,-1,-1,-1,-1,-1,-1,-1,-1,-1,-1,-1,-1,-1,-1],"split_conditions":[1E0,3.002E1,4.3E1,4.5E1,4.5E1,2.3E1,5.9E1,1.78E1,3.3584537E2,3.54E1,9.383849E2,2.72E1,1E0,5E1,3.743E1,4.041246E2,2.318E1,5.5218335E2,8.0043805E2,-3.23561E2,2.728E1,3.7E1,2.8E1,2.6695E1,3.22E1,3.458E1,6.4E1,7.653101E1,1.7271019E2,2.8147232E2,-2.7074973E2,-2.2939949E2,-1.577438E2,-6.9133606E1,-1.8345853E2,-1.2936833E2,-7.142519E1,2.37198E1,-5.5488464E1,5.9777615E1,2.4497488E2,-7.69332E0,4.624803E1],"split_indices":[5,1,0,0,0,0,0,1,0,1,0,1,3,0,1,0,1,0,0,0,1,0,0,1,1,1,0,0,0,0,0,0,0,0,0,0,0,0,0,0,0,0,0],"split_type":[0,0,0,0,0,0,0,0,0,0,0,0,0,0,0,0,0,0,0,0,0,0,0,0,0,0,0,0,0,0,0,0,0,0,0,0,0,0,0,0,0,0,0],"sum_hessian":[8.39E2,1.68E2,6.71E2,8.2E1,8.6E1,3.82E2,2.89E2,5.6E1,2.6E1,5.4E1,3.2E1,1.19E2,2.63E2,2.27E2,6.2E1,1E0,5.5E1,2.6E1,2.8E1,4.3E1,7.6E1,1.26E2,1.37E2,9.6E1,1.31E2,5E1,1.2E1,1.9E1,3.6E1,1E0,7.5E1,8.3E1,4.3E1,2.7E1,1.1E2,2.4E1,7.2E1,7.2E1,5.9E1,3.9E1,1.1E1,1E1,2E0],"tree_param":{"num_deleted":"0","num_feature":"7","num_nodes":"43","size_leaf_vector":"1"}},{"base_weights":[7.3148026E1,9.553054E3,-2.4596523E3,7.4902065E3,1.2889601E4,-3.8115999E3,-5.6732745E0,4.2999907E3,8.394179E3,5.4325726E2,7.4450464E2,-4.9572837E3,-3.0271958E3,-4.8415884E2,1.3681349E3,4.575785E3,5.6837335E2,8.497451E3,1.3350352E2,-5.7366685E3,-4.1661177E3,-4.575628E3,-2.7648264E3,-8.4946295E2,3.704185E2,8.1473706E2,2.4895334E3,1.7700455E2,2.7013898E2,4.264038E0,3.8363964E1,3.5605542E2,4.5970456E2,-2.2104771E2,-3.090926E2,-2.28299E2,-1.6289E2,-1.9599023E2,-2.8548947E2,-2.9134614E0,-1.537121E2,-7.1474686E1,-1.9408957E1,-8.740012E1,6.5419266E1,5.6646576E1,2.137207E1,4.431167E1,2.002105E2],"categories":[],"categories_nodes":[],"categories_segments":[],"categories_sizes":[],"default_left":[0,0,0,0,0,0,0,0,0,0,0,0,0,0,0,0,0,0,0,0,0,0,0,0,0,0,0,0,0,0,0,0,0,0,0,0,0,0,0,0,0,0,0,0,0,0,0,0,0],"id":13,"left_children":[1,3,5,7,9,11,13,15,17,-1,-1,19,21,23,25,27,29,31,-1,33,35,37,39,41,43,45,47,-1,-1,-1,-1,-1,-1,-1,-1,-1,-1,-1,-1,-1,-1,-1,-1,-1,-1,-1,-1,-1,-1],"loss_changes":[2.0384578E10,1.1354726E9,2.2228042E9,2.8978176E8,1.0956186E8,3.732229E8,1.5776842E8,2.518656E7,2.8740608E7,0E0,0E0,8.339277E7,9.257088E7,5.5882812E7,3.64476E7,2.286496E6,2.2283581E5,1.6027136E7,0E0,2.24576E7,1.781312E7,4.395904E6,1.8740992E8,3.2889952E7,1.0958551E8,4.814858E6,4.5020976E7,0E0,0E0,0E0,0E0,0E0,0E0,0E0,0E0,0E0,0E0,0E0,0E0,0E0,0E0,0E0,0E0,0E0,0E0,0E0,0E0,0E0,0E0],"parents":[2147483647,0,0,1,1,2,2,3,3,4,4,5,5,6,6,7,7,8,8,11,11,12,12,13,13,14,14,15,15,16,16,17,17,19,19,20,20,21,21,22,22,23,23,24,24,25,25,26,26],"right_children":[2,4,6,8,10,12,14,16,18,-1,-1,20,22,24,26,28,30,32,-1,34,36,38,40,42,44,46,48,-1,-1,-1,-1,-1,-1,-1,-1,-1,-1,-1,-1,-1,-1,-1,-1,-1,-1,-1,-1,-1,-1],"split_conditions":[1E0,4.4E1,4.7E1,2.2E1,5.4E1,1E0,5.9E1,2.1E1,4E0,5.4325726E2,7.4450464E2,2.4E1,2.3E1,2E0,1E0,1E0,2E0,1E0,1.3350352E2,1.9E1,3.7E1,2.1E1,2.8E1,5.2E1,5E1,6.2E1,1E0,1.7700455E2,2.7013898E2,4.264038E0,3.8363964E1,3.5605542E2,4.5970456E2,-2.2104771E2,-3.090926E2,-2.28299E2,-1.6289E2,-1.9599023E2,-2.8548947E2,-2.9134614E0,-1.537121E2,-7.1474686E1,-1.9408957E1,-8.740012E1,6.5419266E1,5.6646576E1,2.137207E1,4.431167E1,2.002105E2],"split_indices":[5,0,0,0,0,2,0,0,2,0,0,0,0,2,2,3,2,2,0,0,0,0,0,0,0,0,3,0,0,0,0,0,0,0,0,0,0,0,0,0,0,0,0,0,0,0,0,0,0],"split_type":[0,0,0,0,0,0,0,0,0,0,0,0,0,0,0,0,0,0,0,0,0,0,0,0,0,0,0,0,0,0,0,0,0,0,0,0,0,0,0,0,0,0,0,0,0,0,0,0,0],"sum_hessian":[8.47E2,1.78E2,6.69E2,1.12E2,6.6E1,4.31E2,2.38E2,2.6E1,8.6E1,3.6E1,3E1,1.73E2,2.58E2,1.77E2,6.1E1,2.4E1,2E0,8.4E1,2E0,8.4E1,8.9E1,3.5E1,2.23E2,1.24E2,5.3E1,4.2E1,1.9E1,1.3E1,1.1E1,1E0,1E0,3.2E1,5.2E1,2.4E1,6E1,5.9E1,3E1,2.5E1,1E1,2.3E1,2E2,5.4E1,7E1,1.6E1,3.7E1,2.2E1,2E1,1E1,9E0],"tree_param":{"num_deleted":"0","num_feature":"7","num_nodes":"49","size_leaf_vector":"1"}},{"base_weights":[6.890848E1,-2.3666897E3,9.191691E3,-3.856593E3,-2.2412961E2,3.5262617E3,1.4507085E4,-4.706867E3,-3.1812378E3,-1.4987167E3,7.705105E2,2.210075E3,5.418594E3,5.577785E2,7.8380334E2,-5.3691504E3,-3.9898533E3,-3.7377446E3,-2.6062646E3,-7.000863E2,-2.0591658E3,1.8491713E3,4.3771808E2,8.753038E2,2.7636165E3,1.1983257E2,5.627006E3,-2.0683618E2,-2.9171286E2,-1.1122803E2,-2.0836479E2,-2.0494572E2,-1.2668212E2,-7.238984E1,-1.5792357E2,-6.702656E1,4.996937E2,-1.4302402E2,-8.522745E1,6.435544E1,5.380339E2,3.964502E0,5.85461E1,-5.714619E0,5.9429333E1,3.8252887E2,1.2076758E2,2.4229349E2,3.5424063E2],"categories":[],"categories_nodes":[],"categories_segments":[],"categories_sizes":[],"default_left":[0,0,0,0,0,0,0,0,0,0,0,0,0,0,0,0,0,0,0,0,0,0,0,0,0,0,0,0,0,0,0,0,0,0,0,0,0,0,0,0,0,0,0,0,0,0,0,0,0],"id":14,"left_children":[1,3,5,7,9,11,13,15,17,19,21,23,25,-1,-1,27,29,31,33,35,37,39,41,43,45,-1,47,-1,-1,-1,-1,-1,-1,-1,-1,-1,-1,-1,-1,-1,-1,-1,-1,-1,-1,-1,-1,-1,-1],"loss_changes":[1.866386E10,2.1155689E9,5.279021E9,2.095534E8,3.47252E8,2.047122E8,1.8164736E8,5.9780096E7,6.097331E7,5.2269376E7,5.4471984E7,3.674013E7,8.557312E6,0E0,0E0,2.5161472E7,1.7668096E7,3.745216E7,6.7075136E7,3.6269056E8,1.501536E7,1.6646747E8,3.1180456E7,5.406246E6,4.449357E7,0E0,2.107712E6,0E0,0E0,0E0,0E0,0E0,0E0,0E0,0E0,0E0,0E0,0E0,0E0,0E0,0E0,0E0,0E0,0E0,0E0,0E0,0E0,0E0,0E0],"parents":[2147483647,0,0,1,1,2,2,3,3,4,4,5,5,6,6,7,7,8,8,9,9,10,10,11,11,12,12,15,15,16,16,17,17,18,18,19,19,20,20,21,21,22,22,23,23,24,24,26,26],"right_children":[2,4,6,8,10,12,14,16,18,20,22,24,26,-1,-1,28,30,32,34,36,38,40,42,44,46,-1,48,-1,-1,-1,-1,-1,-1,-1,-1,-1,-1,-1,-1,-1,-1,-1,-1,-1,-1,-1,-1,-1,-1],"split_conditions":[1E0,4.4E1,2.99E1,1E0,5.2E1,4.3E1,2.8E1,2.4E1,1E0,2.98E1,2.684E1,2.2E1,2.0425E1,5.577785E2,7.8380334E2,1.9E1,2.5E1,3.33E1,2.9E1,2.96E1,4.7E1,2.679E1,3.6385E1,2.1755E1,1.78E1,1.1983257E2,5.5E1,-2.0683618E2,-2.9171286E2,-1.1122803E2,-2.0836479E2,-2.0494572E2,-1.2668212E2,-7.238984E1,-1.5792357E2,-6.702656E1,4.996937E2,-1.4302402E2,-8.522745E1,6.435544E1,5.380339E2,3.964502E0,5.85461E1,-5.714619E0,5.9429333E1,3.8252887E2,1.2076758E2,2.4229349E2,3.5424063E2],"split_indices":[6,0,1,2,0,0,0,0,3,1,1,0,1,0,0,0,0,1,0,1,0,1,1,1,1,0,0,0,0,0,0,0,0,0,0,0,0,0,0,0,0,0,0,0,0,0,0,0,0],"split_type":[0,0,0,0,0,0,0,0,0,0,0,0,0,0,0,0,0,0,0,0,0,0,0,0,0,0,0,0,0,0,0,0,0,0,0,0,0,0,0,0,0,0,0,0,0,0,0,0,0],"sum_hessian":[8.38E2,6.62E2,1.76E2,3.9E2,2.72E2,8.6E1,9E1,1.7E2,2.2E2,1.19E2,1.53E2,5.2E1,3.4E1,2.6E1,6.4E1,8.5E1,8.5E1,1.09E2,1.11E2,5E1,6.9E1,3.5E1,1.18E2,1.6E1,3.6E1,3E0,3.1E1,2.6E1,5.9E1,9E0,7.6E1,8.2E1,2.7E1,3.7E1,7.4E1,4.8E1,2E0,1.9E1,5E1,3.4E1,1E0,8E1,3.8E1,4E0,1.2E1,1E0,3.5E1,2.3E1,8E0],"tree_param":{"num_deleted":"0","num_feature":"7","num_nodes":"49","size_leaf_vector":"1"}},{"base_weights":[-7.307876E1,-2.3163801E3,8.796212E3,-3.4237249E3,3.583656E2,3.6142263E3,1.3817529E4,-4.4423267E3,-2.7720908E3,1.3906525E3,-8.344698E1,2.4584907E3,5.3959077E3,5.256452E2,7.644292E2,-4.8045576E3,-3.1641138E3,-2.904362E3,-1.075812E3,-1.1837761E3,2.3537124E3,-1.6099573E3,3.6138736E2,8.37449E2,2.8537004E3,4.5175327E3,3.6181467E2,-2.6828738E2,-2.1121011E2,-1.7269386E2,-3.766496E1,-1.6096611E2,-1.1874047E2,-7.586365E1,2.1590823E2,-8.241948E1,1.3048701E1,2.7803915E2,6.2345192E1,-1.1549397E2,-3.1876643E0,-2.7501764E0,7.9139114E1,-4.44125E0,6.558446E1,3.7296564E2,1.28322E2,9.567303E1,2.3303899E2],"categories":[],"categories_nodes":[],"categories_segments":[],"categories_sizes":[],"default_left":[0,0,0,0,0,0,0,0,0,0,0,0,0,0,0,0,0,0,0,0,0,0,0,0,0,0,0,0,0,0,0,0,0,0,0,0,0,0,0,0,0,0,0,0,0,0,0,0,0],"id":15,"left_children":[1,3,5,7,9,11,13,15,17,19,21,23,25,-1,-1,27,29,31,33,35,37,39,41,43,45,47,-1,-1,-1,-1,-1,-1,-1,-1,-1,-1,-1,-1,-1,-1,-1,-1,-1,-1,-1,-1,-1,-1,-1],"loss_changes":[1.695229E10,2.0152947E9,4.425568E9,3.069522E8,9.13315E7,1.6382144E8,2.6220442E8,7.091738E7,6.328883E7,1.5154602E8,9.632706E7,3.2205344E7,2.0655872E7,0E0,0E0,2.390784E7,2.8135136E7,3.80544E7,6.132013E7,1.1841442E7,1.492492E8,3.448385E7,5.6030604E7,5.387826E6,3.7745504E7,4.07424E5,0E0,0E0,0E0,0E0,0E0,0E0,0E0,0E0,0E0,0E0,0E0,0E0,0E0,0E0,0E0,0E0,0E0,0E0,0E0,0E0,0E0,0E0,0E0],"parents":[2147483647,0,0,1,1,2,2,3,3,4,4,5,5,6,6,7,7,8,8,9,9,10,10,11,11,12,12,15,15,16,16,17,17,18,18,19,19,20,20,21,21,22,22,23,23,24,24,25,25],"right_children":[2,4,6,8,10,12,14,16,18,20,22,24,26,-1,-1,28,30,32,34,36,38,40,42,44,46,48,-1,-1,-1,-1,-1,-1,-1,-1,-1,-1,-1,-1,-1,-1,-1,-1,-1,-1,-1,-1,-1,-1,-1],"split_conditions":[1E0,4.9E1,3.002E1,1E0,2.86E1,4.3E1,3.1E1,3.5E1,4E0,2.3845E1,5.2E1,2E1,5.7E1,5.256452E2,7.644292E2,1E0,4.7E1,3.9E1,3.572E1,5.9E1,2.5555E1,2E0,2E0,2.527E1,1.78E1,2.0235E1,3.6181467E2,-2.6828738E2,-2.1121011E2,-1.7269386E2,-3.766496E1,-1.6096611E2,-1.1874047E2,-7.586365E1,2.1590823E2,-8.241948E1,1.3048701E1,2.7803915E2,6.2345192E1,-1.1549397E2,-3.1876643E0,-2.7501764E0,7.9139114E1,-4.44125E0,6.558446E1,3.7296564E2,1.28322E2,9.567303E1,2.3303899E2],"split_indices":[6,0,1,2,1,0,0,0,2,1,0,0,0,0,0,3,0,0,1,0,1,2,2,1,1,1,0,0,0,0,0,0,0,0,0,0,0,0,0,0,0,0,0,0,0,0,0,0,0],"split_type":[0,0,0,0,0,0,0,0,0,0,0,0,0,0,0,0,0,0,0,0,0,0,0,0,0,0,0,0,0,0,0,0,0,0,0,0,0,0,0,0,0,0,0,0,0,0,0,0,0],"sum_hessian":[8.5E2,6.79E2,1.71E2,4.8E2,1.99E2,8.5E1,8.6E1,1.85E2,2.95E2,5.9E1,1.4E2,5.3E1,3.2E1,2.9E1,5.7E1,1.42E2,4.3E1,2.73E2,2.2E1,1.6E1,4.3E1,3.1E1,1.09E2,1.1E1,4.2E1,2.4E1,8E0,6.8E1,7.4E1,3.8E1,5E0,1.68E2,1.05E2,2.1E1,1E0,1.2E1,4E0,1E1,3.3E1,2.1E1,1E1,8.2E1,2.7E1,4E0,7E0,1E0,4.1E1,2E0,2.2E1],"tree_param":{"num_deleted":"0","num_feature":"7","num_nodes":"49","size_leaf_vector":"1"}},{"base_weights":[3.7471863E1,8.612572E3,-2.2178105E3,3.3811587E3,1.3341403E4,-3.5689956E3,-4.4489713E2,2.7784336E3,5.5577124E3,1.1990114E4,8.103247E2,-4.8122407E3,-3.0861067E3,-1.0659706E3,8.421029E2,3.636415E2,2.6001423E3,7.253755E1,2.8618628E2,4.9949716E2,6.870302E2,-5.0648066E3,-2.8629133E3,-3.960055E3,-2.6417798E3,-1.5584353E3,-2.7694638E2,4.5708972E2,1.6760255E3,4.912927E1,1.528314E2,-1.883187E2,-2.7431418E2,-3.9312687E1,-2.4136255E2,-2.0736852E2,-1.3301697E2,4.493765E1,-1.3942685E2,-1.5823341E2,-6.558911E1,-5.931325E1,4.910107E1,1.2370174E1,9.6008934E1,2.813631E2,5.0184025E1],"categories":[],"categories_nodes":[],"categories_segments":[],"categories_sizes":[],"default_left":[0,0,0,0,0,0,0,0,0,0,0,0,0,0,0,0,0,0,0,0,0,0,0,0,0,0,0,0,0,0,0,0,0,0,0,0,0,0,0,0,0,0,0,0,0,0,0],"id":16,"left_children":[1,3,5,7,9,11,13,15,17,19,-1,21,23,25,27,-1,29,-1,-1,-1,-1,31,33,35,37,39,41,43,45,-1,-1,-1,-1,-1,-1,-1,-1,-1,-1,-1,-1,-1,-1,-1,-1,-1,-1],"loss_changes":[1.5974003E10,4.2099077E9,1.5650916E9,9.344288E7,1.5412224E8,2.0787814E8,2.27905E8,3.4777536E7,3.287072E6,9.031578E7,0E0,3.5718144E7,9.438438E7,7.41732E7,2.9093528E7,0E0,4.5730464E7,0E0,0E0,0E0,0E0,2.8042752E7,5.3314184E7,1.063424E7,9.707302E7,4.2598144E7,8.702515E7,1.9466264E7,7.139325E7,0E0,0E0,0E0,0E0,0E0,0E0,0E0,0E0,0E0,0E0,0E0,0E0,0E0,0E0,0E0,0E0,0E0,0E0],"parents":[2147483647,0,0,1,1,2,2,3,3,4,4,5,5,6,6,7,7,8,8,9,9,11,11,12,12,13,13,14,14,16,16,21,21,22,22,23,23,24,24,25,25,26,26,27,27,28,28],"right_children":[2,4,6,8,10,12,14,16,18,20,-1,22,24,26,28,-1,30,-1,-1,-1,-1,32,34,36,38,40,42,44,46,-1,-1,-1,-1,-1,-1,-1,-1,-1,-1,-1,-1,-1,-1,-1,-1,-1,-1],"split_conditions":[1E0,3.01E1,4.3E1,5E1,5.1E1,2.3E1,5.7E1,1.78E1,2.0045E1,3.53E1,8.103247E2,2E0,1E0,2E0,1E0,3.636415E2,2.2515E1,7.253755E1,2.8618628E2,4.9949716E2,6.870302E2,1.9E1,2E1,3.591E1,2.5E1,4.5E1,5E1,3.9995E1,2.4795E1,4.912927E1,1.528314E2,-1.883187E2,-2.7431418E2,-3.9312687E1,-2.4136255E2,-2.0736852E2,-1.3301697E2,4.493765E1,-1.3942685E2,-1.5823341E2,-6.558911E1,-5.931325E1,4.910107E1,1.2370174E1,9.6008934E1,2.813631E2,5.0184025E1],"split_indices":[5,1,0,0,0,0,0,1,1,1,0,2,2,2,2,0,1,0,0,0,0,0,0,1,0,0,0,1,1,0,0,0,0,0,0,0,0,0,0,0,0,0,0,0,0,0,0],"split_type":[0,0,0,0,0,0,0,0,0,0,0,0,0,0,0,0,0,0,0,0,0,0,0,0,0,0,0,0,0,0,0,0,0,0,0,0,0,0,0,0,0,0,0,0,0,0,0],"sum_hessian":[8.24E2,1.71E2,6.53E2,8.2E1,8.9E1,3.7E2,2.83E2,6.6E1,1.6E1,6.4E1,2.5E1,1.01E2,2.69E2,1.91E2,9.2E1,1E0,6.5E1,1E0,1.5E1,3.3E1,3.1E1,8.8E1,1.3E1,8.8E1,1.81E2,1.17E2,7.4E1,6.4E1,2.8E1,1.5E1,5E1,2.4E1,6.4E1,7E0,6E0,7.5E1,1.3E1,7E0,1.74E2,1.4E1,1.03E2,4.3E1,3.1E1,5.7E1,7E0,3E0,2.5E1],"tree_param":{"num_deleted":"0","num_feature":"7","num_nodes":"47","size_leaf_vector":"1"}},{"base_weights":[1.4006514E2,8.0539473E3,-1.9471935E3,3.0867722E3,1.2293595E4,-3.0592725E3,9.841311E1,2.3992883E3,5.7297197E3,1.0887685E4,7.74888E2,-3.6583574E3,-1.9703214E3,-1.442389E2,1.2667488E3,7.398638E2,2.8728472E3,7.072412E1,2.9615515E2,4.3595425E2,6.399921E2,-4.582066E3,-3.0893074E3,-1.392587E3,-2.7107805E3,-1.6212961E3,-1.065938E1,3.8857183E3,6.902918E2,-1.0418653E1,5.3665356E1,3.1476575E2,1.3023393E2,-2.7240073E2,-1.967759E2,-1.3021838E2,-1.8268933E2,-1.0446295E2,1.2195272E2,-2.1276305E2,-4.6839664E1,-1.01213905E2,-4.069969E1,8.180624E1,-1.9836416E1,1.5496546E1,3.245038E2,4.7322493E0,9.635655E1],"categories":[],"categories_nodes":[],"categories_segments":[],"categories_sizes":[],"default_left":[0,0,0,0,0,0,0,0,0,0,0,0,0,0,0,0,0,0,0,0,0,0,0,0,0,0,0,0,0,0,0,0,0,0,0,0,0,0,0,0,0,0,0,0,0,0,0,0,0],"id":17,"left_children":[1,3,5,7,9,11,13,15,17,19,-1,21,23,25,27,29,31,-1,-1,-1,-1,33,35,37,39,41,43,45,47,-1,-1,-1,-1,-1,-1,-1,-1,-1,-1,-1,-1,-1,-1,-1,-1,-1,-1,-1,-1],"loss_changes":[1.3692851E10,3.6052705E9,1.4926195E9,1.3342842E8,2.5020826E8,2.7005107E8,6.595448E7,4.9739616E7,4.973824E6,1.7037312E8,0E0,1.2934323E8,6.167667E7,3.8062504E7,5.7706652E7,5.282582E6,3.0410432E7,0E0,0E0,0E0,0E0,3.566669E7,3.756723E7,2.4000277E8,1.7684627E8,3.5575E6,1.1381654E8,6.317693E7,2.4866066E7,0E0,0E0,0E0,0E0,0E0,0E0,0E0,0E0,0E0,0E0,0E0,0E0,0E0,0E0,0E0,0E0,0E0,0E0,0E0,0E0],"parents":[2147483647,0,0,1,1,2,2,3,3,4,4,5,5,6,6,7,7,8,8,9,9,11,11,12,12,13,13,14,14,15,15,16,16,21,21,22,22,23,23,24,24,25,25,26,26,27,27,28,28],"right_children":[2,4,6,8,10,12,14,16,18,20,-1,22,24,26,28,30,32,-1,-1,-1,-1,34,36,38,40,42,44,46,48,-1,-1,-1,-1,-1,-1,-1,-1,-1,-1,-1,-1,-1,-1,-1,-1,-1,-1,-1,-1],"split_conditions":[1E0,3.002E1,4.7E1,5.2E1,5.1E1,2E0,6.1E1,2.2E1,2.0045E1,3.54E1,7.74888E2,2.4E1,3.0685E1,2.3845E1,2.5175E1,2.1755E1,2.5E1,7.072412E1,2.9615515E2,4.3595425E2,6.399921E2,2.831E1,1E0,2.964E1,3.5E1,5.4E1,2.74E1,2.17E1,1E0,-1.0418653E1,5.3665356E1,3.1476575E2,1.3023393E2,-2.7240073E2,-1.967759E2,-1.3021838E2,-1.8268933E2,-1.0446295E2,1.2195272E2,-2.1276305E2,-4.6839664E1,-1.01213905E2,-4.069969E1,8.180624E1,-1.9836416E1,1.5496546E1,3.245038E2,4.7322493E0,9.635655E1],"split_indices":[5,1,0,0,0,2,0,0,1,1,0,0,1,1,1,1,0,0,0,0,0,1,4,1,0,0,1,1,2,0,0,0,0,0,0,0,0,0,0,0,0,0,0,0,0,0,0,0,0],"split_type":[0,0,0,0,0,0,0,0,0,0,0,0,0,0,0,0,0,0,0,0,0,0,0,0,0,0,0,0,0,0,0,0,0,0,0,0,0,0,0,0,0,0,0,0,0,0,0,0,0],"sum_hessian":[8.27E2,1.72E2,6.55E2,8E1,9.2E1,4.24E2,2.31E2,6.5E1,1.5E1,6.7E1,2.5E1,2.72E2,1.52E2,1.92E2,3.9E1,1.5E1,5E1,1E0,1.4E1,3.4E1,3.3E1,1.01E2,1.71E2,8.7E1,6.5E1,1.5E1,1.77E2,6E0,3.3E1,4E0,1.1E1,2E0,4.8E1,4E1,6.1E1,9.5E1,7.6E1,7.4E1,1.3E1,3.4E1,3.1E1,9E0,6E0,3.3E1,1.44E2,3E0,3E0,2.3E1,1E1],"tree_param":{"num_deleted":"0","num_feature":"7","num_nodes":"49","size_leaf_vector":"1"}},{"base_weights":[-3.080408E1,7.5082017E3,-1.9155104E3,2.9792834E3,1.1846705E4,-3.0936184E3,-3.1382642E2,2.078824E3,4.405706E3,1.0478071E4,7.501391E2,-3.560933E3,-2.128239E3,-1.1811378E3,4.2372772E2,6.236668E2,2.3559963E3,1.03759155E2,2.2876184E2,4.4809805E2,5.9994135E2,-4.389356E3,-2.9862554E3,3.1702872E2,-2.3329475E3,-1.6622324E3,-4.598886E2,-8.9488E2,6.1040704E2,-5.0571456E0,6.843526E1,3.5129465E2,1.0450915E2,-1.558146E2,-2.3925035E2,-6.753821E1,-1.5862706E2,-1.7159958E2,2.0066055E2,-1.2864049E2,-2.9902542E1,-1.4374799E2,-6.6907104E1,-5.386556E1,1.0538694E2,-9.90199E1,-3.0841473E-1,2.9754706E2,2.2442213E1],"categories":[],"categories_nodes":[],"categories_segments":[],"categories_sizes":[],"default_left":[0,0,0,0,0,0,0,0,0,0,0,0,0,0,0,0,0,0,0,0,0,0,0,0,0,0,0,0,0,0,0,0,0,0,0,0,0,0,0,0,0,0,0,0,0,0,0,0,0],"id":18,"left_children":[1,3,5,7,9,11,13,15,17,19,-1,21,23,25,27,29,31,-1,-1,-1,-1,33,35,37,39,41,43,45,47,-1,-1,-1,-1,-1,-1,-1,-1,-1,-1,-1,-1,-1,-1,-1,-1,-1,-1,-1,-1],"loss_changes":[1.2148708E10,3.3246372E9,1.2897075E9,1.0001843E8,2.1859738E8,1.7016909E8,1.8665002E8,2.03104E7,3.148544E6,4.002765E7,0E0,1.1257626E8,6.6313856E7,4.5732096E7,3.943902E7,5.538544E6,4.117403E7,0E0,0E0,0E0,0E0,3.847949E7,4.4157056E7,1.6620098E8,4.8813824E7,2.7595536E7,8.946278E7,1.9282032E7,1.1726254E8,0E0,0E0,0E0,0E0,0E0,0E0,0E0,0E0,0E0,0E0,0E0,0E0,0E0,0E0,0E0,0E0,0E0,0E0,0E0,0E0],"parents":[2147483647,0,0,1,1,2,2,3,3,4,4,5,5,6,6,7,7,8,8,9,9,11,11,12,12,13,13,14,14,15,15,16,16,21,21,22,22,23,23,24,24,25,25,26,26,27,27,28,28],"right_children":[2,4,6,8,10,12,14,16,18,20,-1,22,24,26,28,30,32,-1,-1,-1,-1,34,36,38,40,42,44,46,48,-1,-1,-1,-1,-1,-1,-1,-1,-1,-1,-1,-1,-1,-1,-1,-1,-1,-1,-1,-1],"split_conditions":[1E0,3.002E1,4.3E1,4.3E1,5.1E1,2E0,5.2E1,2E1,2.0425E1,3.54E1,7.501391E2,2.4E1,2E1,2E0,2.486E1,2.618E1,1.78E1,1.03759155E2,2.2876184E2,4.4809805E2,5.9994135E2,1.9E1,2.6E1,1.9E1,4E0,4.5E1,5E1,5.7E1,2.5175E1,-5.0571456E0,6.843526E1,3.5129465E2,1.0450915E2,-1.558146E2,-2.3925035E2,-6.753821E1,-1.5862706E2,-1.7159958E2,2.0066055E2,-1.2864049E2,-2.9902542E1,-1.4374799E2,-6.6907104E1,-5.386556E1,1.0538694E2,-9.90199E1,-3.0841473E-1,2.9754706E2,2.2442213E1],"split_indices":[5,1,0,0,0,2,0,0,1,1,0,0,0,2,1,1,1,0,0,0,0,0,0,0,2,0,0,0,1,0,0,0,0,0,0,0,0,0,0,0,0,0,0,0,0,0,0,0,0],"split_type":[0,0,0,0,0,0,0,0,0,0,0,0,0,0,0,0,0,0,0,0,0,0,0,0,0,0,0,0,0,0,0,0,0,0,0,0,0,0,0,0,0,0,0,0,0,0,0,0,0],"sum_hessian":[8.53E2,1.7E2,6.83E2,8.4E1,8.6E1,3.93E2,2.9E2,5.3E1,3.1E1,6.3E1,2.3E1,2.63E2,1.3E2,1.33E2,1.57E2,9E0,4.4E1,3E0,2.8E1,3.5E1,2.8E1,1.05E2,1.58E2,1E1,1.2E2,7.9E1,5.4E1,1.9E1,1.38E2,5E0,4E0,1E0,4.3E1,2.7E1,7.8E1,1.7E1,1.41E2,5E0,5E0,1.05E2,1.5E1,1.5E1,6.4E1,4.4E1,1E1,8E0,1.1E1,3E0,1.35E2],"tree_param":{"num_deleted":"0","num_feature":"7","num_nodes":"49","size_leaf_vector":"1"}},{"base_weights":[4.2700397E1,6.8460845E3,-1.8062233E3,2.7842646E3,1.1062651E4,-3.0620935E3,-1.445773E2,1.8730175E3,4.356706E3,9.73238E3,6.9862146E2,-3.966969E3,-2.3712422E3,-1.0452057E3,5.9532654E2,5.5212006E2,2.1917393E3,1.8502135E2,2.9725128E2,3.9910852E2,5.6407794E2,-4.1911143E3,-2.8990393E3,-2.2479536E3,-2.2210588E2,-4.2470157E2,-1.4780325E3,4.7511398E2,2.5060083E3,-3.8866978E0,5.5154987E1,3.4251227E2,9.734362E1,-1.585929E2,-2.2077148E2,-1.5890703E2,-8.4967766E1,-1.2428999E2,8.823664E1,-5.0207775E1,4.8803668E2,-1.0506172E2,-5.522358E1,9.641722E1,1.5444666E1,3.67913E2,4.898472E1],"categories":[],"categories_nodes":[],"categories_segments":[],"categories_sizes":[],"default_left":[0,0,0,0,0,0,0,0,0,0,0,0,0,0,0,0,0,0,0,0,0,0,0,0,0,0,0,0,0,0,0,0,0,0,0,0,0,0,0,0,0,0,0,0,0,0,0],"id":19,"left_children":[1,3,5,7,9,11,13,15,17,19,-1,21,23,25,27,29,31,-1,-1,-1,-1,33,35,37,-1,39,41,43,45,-1,-1,-1,-1,-1,-1,-1,-1,-1,-1,-1,-1,-1,-1,-1,-1,-1,-1],"loss_changes":[1.0478042E10,3.0177925E9,1.366419E9,1.2366509E8,2.0077363E8,2.2376858E8,1.8920731E8,2.4049824E7,1.2399424E7,8.076595E7,0E0,2.6149376E7,4.465165E7,3.3749344E7,3.464069E7,4.597226E6,4.141776E7,0E0,0E0,0E0,0E0,1.5717376E7,4.979056E6,1.9908474E8,0E0,3.285087E8,1.5139536E7,3.515477E7,5.944569E7,0E0,0E0,0E0,0E0,0E0,0E0,0E0,0E0,0E0,0E0,0E0,0E0,0E0,0E0,0E0,0E0,0E0,0E0],"parents":[2147483647,0,0,1,1,2,2,3,3,4,4,5,5,6,6,7,7,8,8,9,9,11,11,12,12,13,13,14,14,15,15,16,16,21,21,22,22,23,23,25,25,26,26,27,27,28,28],"right_children":[2,4,6,8,10,12,14,16,18,20,-1,22,24,26,28,30,32,-1,-1,-1,-1,34,36,38,-1,40,42,44,46,-1,-1,-1,-1,-1,-1,-1,-1,-1,-1,-1,-1,-1,-1,-1,-1,-1,-1],"split_conditions":[1E0,3.002E1,4.3E1,4.3E1,5.1E1,1E0,5.2E1,2E1,5.7E1,3.54E1,6.9862146E2,3.4E1,4.169E1,2.98E1,6.4E1,2.618E1,1.78E1,1.8502135E2,2.9725128E2,3.9910852E2,5.6407794E2,1.9E1,3.591E1,3.77E1,-2.2210588E2,2.96E1,4.7E1,5.3E1,2.4795E1,-3.8866978E0,5.5154987E1,3.4251227E2,9.734362E1,-1.585929E2,-2.2077148E2,-1.5890703E2,-8.4967766E1,-1.2428999E2,8.823664E1,-5.0207775E1,4.8803668E2,-1.0506172E2,-5.522358E1,9.641722E1,1.5444666E1,3.67913E2,4.898472E1],"split_indices":[5,1,0,0,0,2,0,0,0,1,0,0,1,1,0,1,1,0,0,0,0,0,1,1,0,1,0,0,1,0,0,0,0,0,0,0,0,0,0,0,0,0,0,0,0,0,0],"split_type":[0,0,0,0,0,0,0,0,0,0,0,0,0,0,0,0,0,0,0,0,0,0,0,0,0,0,0,0,0,0,0,0,0,0,0,0,0,0,0,0,0,0,0,0,0,0,0],"sum_hessian":[8.31E2,1.77E2,6.54E2,9.1E1,8.6E1,3.72E2,2.82E2,5.9E1,3.2E1,6.2E1,2.4E1,1.59E2,2.13E2,1.27E2,1.55E2,1.2E1,4.7E1,2.5E1,7E0,3.2E1,3E1,1.29E2,3E1,2.03E2,1E1,5.3E1,7.4E1,1.47E2,8E0,6E0,6E0,1E0,4.6E1,2.6E1,1.03E2,2.3E1,7E0,1.92E2,1.1E1,5.1E1,2E0,2.6E1,4.8E1,1.4E1,1.33E2,1E0,7E0],"tree_param":{"num_deleted":"0","num_feature":"7","num_nodes":"47","size_leaf_vector":"1"}},{"base_weights":[8.547194E1,7.0827974E3,-1.7881987E3,2.8704795E3,1.09508955E4,-2.312173E3,-1.3714901E3,2.3826274E3,2.0727995E2,4.8877158E2,6.368866E2,-1.7049419E2,-2.1578853E3,-2.4696187E3,-1.2085936E3,1.4609753E3,2.7241255E3,-2.569443E3,-1.7692938E3,-1.5679866E2,-1.785166E3,-1.0944279E3,-3.0317234E3,1.9963652E2,4.7892544E1,1.5677402E2,8.65579E1,-1.9345665E2,-9.82123E1,-9.631861E1,1.0168366E2,-1.07799416E2,1.0174277E1,-5.734071E1,2.359282E2,-1.7064659E2,-6.408764E1],"categories":[],"categories_nodes":[],"categories_segments":[],"categories_sizes":[],"default_left":[0,0,0,0,0,0,0,0,0,0,0,0,0,0,0,0,0,0,0,0,0,0,0,0,0,0,0,0,0,0,0,0,0,0,0,0,0],"id":20,"left_children":[1,3,5,7,9,11,13,15,-1,-1,-1,-1,17,19,21,23,25,27,29,-1,31,33,35,-1,-1,-1,-1,-1,-1,-1,-1,-1,-1,-1,-1,-1,-1],"loss_changes":[1.1235411E10,2.917718E9,1.4442982E8,4.486477E7,7.291699E7,4.311232E7,6.4811264E7,1.679312E7,0E0,0E0,0E0,0E0,3.767488E7,1.6294016E7,6.578416E7,2.1651308E7,1.3769696E7,9.150765E7,8.69512E7,0E0,1.9612064E7,1.0103107E8,8.300448E6,0E0,0E0,0E0,0E0,0E0,0E0,0E0,0E0,0E0,0E0,0E0,0E0,0E0,0E0],"parents":[2147483647,0,0,1,1,2,2,3,3,4,4,5,5,6,6,7,7,12,12,13,13,14,14,15,15,16,16,17,17,18,18,20,20,21,21,22,22],"right_children":[2,4,6,8,10,12,14,16,-1,-1,-1,-1,18,20,22,24,26,28,30,-1,32,34,36,-1,-1,-1,-1,-1,-1,-1,-1,-1,-1,-1,-1,-1,-1],"split_conditions":[1E0,3.01E1,1E0,2.805E1,3.6385E1,2.318E1,2.394E1,2.261E1,2.0727995E2,4.8877158E2,6.368866E2,-1.7049419E2,1E0,1E0,4.169E1,1.78E1,2.7E1,2.9545E1,4.0945E1,-1.5679866E2,2.356E1,4.1325E1,3E0,1.9963652E2,4.7892544E1,1.5677402E2,8.65579E1,-1.9345665E2,-9.82123E1,-9.631861E1,1.0168366E2,-1.07799416E2,1.0174277E1,-5.734071E1,2.359282E2,-1.7064659E2,-6.408764E1],"split_indices":[5,1,2,1,1,1,1,1,0,0,0,0,3,3,1,1,1,1,1,0,1,1,2,0,0,0,0,0,0,0,0,0,0,0,0,0,0],"split_type":[0,0,0,0,0,0,0,0,0,0,0,0,0,0,0,0,0,0,0,0,0,0,0,0,0,0,0,0,0,0,0,0,0,0,0,0,0],"sum_hessian":[8.55E2,1.8E2,6.75E2,8.7E1,9.3E1,2.97E2,3.78E2,6.5E1,2.2E1,6E1,3.3E1,3.4E1,2.63E2,4.7E1,3.31E2,1.9E1,4.6E1,1.25E2,1.38E2,2.2E1,2.5E1,3.13E2,1.8E1,2E0,1.7E1,3.1E1,1.5E1,3.8E1,8.7E1,1.33E2,5E0,2.1E1,4E0,3.11E2,2E0,1.4E1,4E0],"tree_param":{"num_deleted":"0","num_feature":"7","num_nodes":"37","size_leaf_vector":"1"}},{"base_weights":[-2.7125526E1,6.472202E3,-1.7242391E3,4.999426E3,8.910337E3,-2.900588E3,-1.4709409E2,3.3028574E3,5.552409E3,7.4656123E3,4.8701944E2,-3.6864312E3,-2.278074E3,-1.00144244E3,5.7759015E2,1.7148228E2,-9.34983E0,3.7325595E2,5.0905474E3,1.0608137E4,5.6781953E3,-4.0284727E3,-2.310875E3,-2.473378E3,-1.5148748E3,-1.4381079E3,-2.9359616E2,9.67305E1,1.1439282E3,1.6831673E2,2.7497906E2,7.579471E2,2.9031223E2,3.023441E2,7.866741E1,-2.2258727E2,-1.7889423E2,-8.667919E1,-1.395928E2,-1.5362231E2,-1.00566216E2,-3.7446354E1,-1.0272527E2,-1.2950278E2,-5.7077583E1,-4.6293793E1,1.0736266E2,-1.580485E1,2.4898855E1,2.5066153E1,1.204125E2],"categories":[],"categories_nodes":[],"categories_segments":[],"categories_sizes":[],"default_left":[0,0,0,0,0,0,0,0,0,0,0,0,0,0,0,0,0,0,0,0,0,0,0,0,0,0,0,0,0,0,0,0,0,0,0,0,0,0,0,0,0,0,0,0,0,0,0,0,0,0,0],"id":21,"left_children":[1,3,5,7,9,11,13,15,17,19,-1,21,23,25,27,-1,-1,-1,29,31,33,35,37,39,41,43,45,47,49,-1,-1,-1,-1,-1,-1,-1,-1,-1,-1,-1,-1,-1,-1,-1,-1,-1,-1,-1,-1,-1,-1],"loss_changes":[9.375712E9,5.874391E8,1.2500276E9,8.673664E7,5.23008E6,1.8043213E8,1.795078E8,1.3915456E7,3.532109E7,9.70409E7,0E0,7.020493E7,2.8747392E7,4.068703E7,4.2645024E7,0E0,0E0,0E0,3.0854912E7,1.0865574E8,2.0754176E7,9.628672E6,5.156048E6,4.143027E7,1.7887776E7,2.505592E7,8.223966E7,1.4402933E7,5.728979E7,0E0,0E0,0E0,0E0,0E0,0E0,0E0,0E0,0E0,0E0,0E0,0E0,0E0,0E0,0E0,0E0,0E0,0E0,0E0,0E0,0E0,0E0],"parents":[2147483647,0,0,1,1,2,2,3,3,4,4,5,5,6,6,7,7,8,8,9,9,11,11,12,12,13,13,14,14,18,18,19,19,20,20,21,21,22,22,23,23,24,24,25,25,26,26,27,27,28,28],"right_children":[2,4,6,8,10,12,14,16,18,20,-1,22,24,26,28,-1,-1,-1,30,32,34,36,38,40,42,44,46,48,50,-1,-1,-1,-1,-1,-1,-1,-1,-1,-1,-1,-1,-1,-1,-1,-1,-1,-1,-1,-1,-1,-1],"split_conditions":[1E0,4.4E1,4.3E1,2.2E1,5.2E1,1E0,5.2E1,2.1E1,2.6E1,1E0,4.8701944E2,3.4E1,3.9E1,2E0,1E0,1.7148228E2,-9.34983E0,3.7325595E2,3E1,4.6E1,5.1E1,1E0,3.8E1,2E0,4.1E1,4.5E1,5E1,1E0,5.9E1,1.6831673E2,2.7497906E2,7.579471E2,2.9031223E2,3.023441E2,7.866741E1,-2.2258727E2,-1.7889423E2,-8.667919E1,-1.395928E2,-1.5362231E2,-1.00566216E2,-3.7446354E1,-1.0272527E2,-1.2950278E2,-5.7077583E1,-4.6293793E1,1.0736266E2,-1.580485E1,2.4898855E1,2.5066153E1,1.204125E2],"split_indices":[5,0,0,0,0,2,0,0,0,2,0,0,0,2,2,0,0,0,0,0,0,3,0,2,0,0,0,3,0,0,0,0,0,0,0,0,0,0,0,0,0,0,0,0,0,0,0,0,0,0,0],"split_type":[0,0,0,0,0,0,0,0,0,0,0,0,0,0,0,0,0,0,0,0,0,0,0,0,0,0,0,0,0,0,0,0,0,0,0,0,0,0,0,0,0,0,0,0,0,0,0,0,0,0,0],"sum_hessian":[8.48E2,1.75E2,6.73E2,1.11E2,6.4E1,3.85E2,2.88E2,2.9E1,8.2E1,2.7E1,3.7E1,1.68E2,2.17E2,1.32E2,1.56E2,2.8E1,1E0,1.3E1,6.9E1,8E0,1.9E1,1.33E2,3.5E1,1.71E2,4.6E1,8.1E1,5.1E1,8.5E1,7.1E1,1.5E1,5.4E1,3E0,5E0,1.7E1,2E0,6.4E1,6.9E1,1.8E1,1.7E1,7.2E1,9.9E1,2E1,2.6E1,1.5E1,6.6E1,4.1E1,1E1,4.2E1,4.3E1,4.8E1,2.3E1],"tree_param":{"num_deleted":"0","num_feature":"7","num_nodes":"51","size_leaf_vector":"1"}},{"base_weights":[5.3914364E1,6.297509E3,-1.5256466E3,2.528753E3,9.863922E3,-2.7243645E3,5.317092E1,1.6698918E3,3.7426694E3,7.9419834E3,1.1561681E4,-3.0490427E3,-2.0324337E3,-9.499738E2,5.5189844E2,3.2208408E2,1.4456224E3,3.0495513E3,2.6645792E2,3.1151117E2,4.685276E2,1.685543E2,5.836882E2,-3.544979E3,-2.548793E3,-2.3153884E3,5.834376E2,-7.3295374E2,-1.9281299E3,1.5961196E3,2.1880925E2,4.8251328E1,1.4435454E2,6.3184406E1,1.57286E2,-2.1268108E2,-1.6409798E2,-1.0170852E2,-1.7833179E2,-1.19794205E2,-6.2334778E1,2.1396007E2,-1.597837E2,-4.7886578E1,4.3123178E2,-1.0961913E2,-6.1871418E1,-2.8745203E1,1.6127892E2,-1.6759298E1,6.612118E1],"categories":[],"categories_nodes":[],"categories_segments":[],"categories_sizes":[],"default_left":[0,0,0,0,0,0,0,0,0,0,0,0,0,0,0,0,0,0,0,0,0,0,0,0,0,0,0,0,0,0,0,0,0,0,0,0,0,0,0,0,0,0,0,0,0,0,0,0,0,0,0],"id":22,"left_children":[1,3,5,7,9,11,13,15,17,19,21,23,25,27,29,-1,31,33,-1,-1,-1,-1,-1,35,37,39,41,43,45,47,49,-1,-1,-1,-1,-1,-1,-1,-1,-1,-1,-1,-1,-1,-1,-1,-1,-1,-1,-1,-1],"loss_changes":[8.3036646E9,2.2600166E9,1.2719432E9,8.132736E7,1.9205734E8,7.962112E7,1.4611038E8,4.526627E7,2.1135648E7,4.921523E7,1.03936E6,5.4972416E7,9.387258E7,1.917788E7,6.7475416E7,0E0,3.1852048E7,4.90112E5,0E0,0E0,0E0,0E0,0E0,9.710976E6,6.188717E7,6.733888E6,1.9524206E8,1.7863376E8,3.89912E5,1.6812125E8,9.154141E7,0E0,0E0,0E0,0E0,0E0,0E0,0E0,0E0,0E0,0E0,0E0,0E0,0E0,0E0,0E0,0E0,0E0,0E0,0E0,0E0],"parents":[2147483647,0,0,1,1,2,2,3,3,4,4,5,5,6,6,7,7,8,8,9,9,10,10,11,11,12,12,13,13,14,14,16,16,17,17,23,23,24,24,25,25,26,26,27,27,28,28,29,29,30,30],"right_children":[2,4,6,8,10,12,14,16,18,20,22,24,26,28,30,-1,32,34,-1,-1,-1,-1,-1,36,38,40,42,44,46,48,50,-1,-1,-1,-1,-1,-1,-1,-1,-1,-1,-1,-1,-1,-1,-1,-1,-1,-1,-1,-1],"split_conditions":[1E0,3.002E1,4.3E1,4.3E1,4.2E1,3.4E1,5E1,1.78E1,5.7E1,3.54E1,3.021E1,1E0,3.806E1,3.6765E1,2.74E1,3.2208408E2,2.805E1,2.0235E1,2.6645792E2,3.1151117E2,4.685276E2,1.685543E2,5.836882E2,2.47E1,3.25E1,3.61E1,4.169E1,3.63E1,1E0,2.46E1,5.9E1,4.8251328E1,1.4435454E2,6.3184406E1,1.57286E2,-2.1268108E2,-1.6409798E2,-1.0170852E2,-1.7833179E2,-1.19794205E2,-6.2334778E1,2.1396007E2,-1.597837E2,-4.7886578E1,4.3123178E2,-1.0961913E2,-6.1871418E1,-2.8745203E1,1.6127892E2,-1.6759298E1,6.612118E1],"split_indices":[5,1,0,0,0,0,0,1,0,1,1,3,1,1,1,0,1,1,0,0,0,0,0,1,1,1,1,1,3,1,0,0,0,0,0,0,0,0,0,0,0,0,0,0,0,0,0,0,0,0,0],"split_type":[0,0,0,0,0,0,0,0,0,0,0,0,0,0,0,0,0,0,0,0,0,0,0,0,0,0,0,0,0,0,0,0,0,0,0,0,0,0,0,0,0,0,0,0,0,0,0,0,0,0,0],"sum_hessian":[8.4E2,1.69E2,6.71E2,8.3E1,8.6E1,3.81E2,2.9E2,5E1,3.3E1,4.3E1,4.3E1,2.57E2,1.24E2,9.6E1,1.94E2,1E0,4.9E1,2.5E1,8E0,2.2E1,2.1E1,1E0,4.2E1,1.26E2,1.31E2,1.12E2,1.2E1,8E1,1.6E1,4.6E1,1.48E2,3.8E1,1.1E1,2E0,2.3E1,3E1,9.6E1,8.9E1,4.2E1,1.03E2,9E0,6E0,6E0,7.9E1,1E0,1E1,6E0,2E1,2.6E1,9.9E1,4.9E1],"tree_param":{"num_deleted":"0","num_feature":"7","num_nodes":"51","size_leaf_vector":"1"}},{"base_weights":[-4.287177E0,5.9834546E3,-1.5573232E3,4.4948643E3,8.27145E3,-2.5006038E3,-1.7829233E2,2.8145574E3,5.026786E3,6.881301E3,4.7884424E2,-3.3229128E3,-1.8864178E3,-5.8494073E2,1.2084996E3,3.0198494E3,9.717383E1,5.456341E3,3.6463079E3,9.148708E3,5.786657E3,-3.6381162E3,-2.6623872E3,-2.0226458E3,5.353018E1,-1.1535321E3,-3.72072E2,3.2430432E3,7.5487506E2,1.044031E2,1.8955083E2,-1.0322364E1,1.7610401E1,2.2261575E2,3.0088034E2,1.1311797E2,2.1377693E2,7.129658E2,2.460701E2,2.2767041E2,3.583264E2,-2.1607585E2,-1.4574341E2,-9.731128E1,-1.5387006E2,-4.9551693E1,-1.06784485E2,-1.0545906E2,7.810376E1,-4.2487682E1,-6.1198616E1,-1.2859672E1,-5.100964E1,3.7363674E1,2.5991528E2,2.5490883E1,4.658255E1],"categories":[],"categories_nodes":[],"categories_segments":[],"categories_sizes":[],"default_left":[0,0,0,0,0,0,0,0,0,0,0,0,0,0,0,0,0,0,0,0,0,0,0,0,0,0,0,0,0,0,0,0,0,0,0,0,0,0,0,0,0,0,0,0,0,0,0,0,0,0,0,0,0,0,0,0,0],"id":23,"left_children":[1,3,5,7,9,11,13,15,17,19,-1,21,23,25,27,29,31,33,35,37,39,41,43,45,47,49,51,53,55,-1,-1,-1,-1,-1,-1,-1,-1,-1,-1,-1,-1,-1,-1,-1,-1,-1,-1,-1,-1,-1,-1,-1,-1,-1,-1,-1,-1],"loss_changes":[7.811329E9,5.5203994E8,8.6719654E8,8.148736E7,5.5686656E7,1.9373158E8,1.5409768E8,1.5326544E7,2.754368E7,3.641152E7,0E0,2.529152E7,6.0627264E7,2.5109256E7,5.477289E7,1.07668E7,3.0501366E5,6.45568E6,9.485312E6,1.4586528E8,1.3314432E7,4.2267136E7,1.1249248E7,2.2839552E7,5.5495456E7,1.79616E5,1.1278166E7,4.9794184E7,1.777682E6,0E0,0E0,0E0,0E0,0E0,0E0,0E0,0E0,0E0,0E0,0E0,0E0,0E0,0E0,0E0,0E0,0E0,0E0,0E0,0E0,0E0,0E0,0E0,0E0,0E0,0E0,0E0,0E0],"parents":[2147483647,0,0,1,1,2,2,3,3,4,4,5,5,6,6,7,7,8,8,9,9,11,11,12,12,13,13,14,14,15,15,16,16,17,17,18,18,19,19,20,20,21,21,22,22,23,23,24,24,25,25,26,26,27,27,28,28],"right_children":[2,4,6,8,10,12,14,16,18,20,-1,22,24,26,28,30,32,34,36,38,40,42,44,46,48,50,52,54,56,-1,-1,-1,-1,-1,-1,-1,-1,-1,-1,-1,-1,-1,-1,-1,-1,-1,-1,-1,-1,-1,-1,-1,-1,-1,-1,-1,-1],"split_conditions":[1E0,4.4E1,4.4E1,2.2E1,5.4E1,1E0,5.9E1,2.1E1,3.8E1,4.6E1,4.7884424E2,2.8E1,4E0,4.8E1,6E1,1E0,2E0,1E0,4.1E1,1E0,2E0,1E0,1E0,2.1E1,2.6E1,4.5E1,3E0,1E0,1E0,1.044031E2,1.8955083E2,-1.0322364E1,1.7610401E1,2.2261575E2,3.0088034E2,1.1311797E2,2.1377693E2,7.129658E2,2.460701E2,2.2767041E2,3.583264E2,-2.1607585E2,-1.4574341E2,-9.731128E1,-1.5387006E2,-4.9551693E1,-1.06784485E2,-1.0545906E2,7.810376E1,-4.2487682E1,-6.1198616E1,-1.2859672E1,-5.100964E1,3.7363674E1,2.5991528E2,2.5490883E1,4.658255E1],"split_indices":[5,0,0,0,0,2,0,0,0,0,0,0,2,0,0,3,2,2,0,2,2,3,3,0,0,0,2,2,3,0,0,0,0,0,0,0,0,0,0,0,0,0,0,0,0,0,0,0,0,0,0,0,0,0,0,0,0],"split_type":[0,0,0,0,0,0,0,0,0,0,0,0,0,0,0,0,0,0,0,0,0,0,0,0,0,0,0,0,0,0,0,0,0,0,0,0,0,0,0,0,0,0,0,0,0,0,0,0,0,0,0,0,0,0,0,0,0],"sum_hessian":[8.38E2,1.72E2,6.66E2,1.06E2,6.6E1,3.95E2,2.71E2,2.7E1,7.9E1,3.5E1,3.1E1,1.67E2,2.28E2,2.1E2,6.1E1,2.5E1,2E0,5.8E1,2.1E1,9E0,2.6E1,1.1E2,5.7E1,2.13E2,1.5E1,5.6E1,1.54E2,1E1,5.1E1,1.3E1,1.2E1,1E0,1E0,2.4E1,3.4E1,8E0,1.3E1,3E0,6E0,1.6E1,1E1,5.4E1,5.6E1,2.3E1,3.4E1,2.2E1,1.91E2,6E0,9E0,1.3E1,4.3E1,1.32E2,2.2E1,5E0,5E0,2.3E1,2.8E1],"tree_param":{"num_deleted":"0","num_feature":"7","num_nodes":"57","size_leaf_vector":"1"}},{"base_weights":[2.0437447E1,5.4663027E3,-1.4144319E3,2.0296609E3,8.802912E3,-2.580203E3,-1.2331077E3,1.7058456E3,3.1158406E3,3.7224496E2,4.772618E2,-1.5238803E2,-2.117336E3,3.0644662E2,-1.3631758E3,-5.4434864E1,1.7621244E3,2.3715076E2,2.19592E3,-2.7051602E3,-1.5599481E3,-1.0383284E3,1.6963663E3,-1.6504249E3,-7.6283203E2,3.0650998E2,8.03869E1,5.7236866E1,1.5417844E2,-9.892081E1,-1.6897057E2,-1.1572585E2,-2.2864528E0,-1.275783E2,3.4376976E1,-2.9232786E1,1.9180124E2,-1.4653845E2,-7.563373E1,-3.271569E1,-1.091173E2],"categories":[],"categories_nodes":[],"categories_segments":[],"categories_sizes":[],"default_left":[0,0,0,0,0,0,0,0,0,0,0,0,0,0,0,0,0,0,0,0,0,0,0,0,0,0,0,0,0,0,0,0,0,0,0,0,0,0,0,0,0],"id":24,"left_children":[1,3,5,7,9,11,13,15,17,-1,-1,-1,19,21,23,-1,25,-1,27,29,31,33,35,37,39,-1,-1,-1,-1,-1,-1,-1,-1,-1,-1,-1,-1,-1,-1,-1,-1],"loss_changes":[6.5950223E9,2.0002775E9,1.3802189E8,2.5636384E7,1.8656256E7,1.2807936E7,1.165609E8,1.2927584E7,1.8025296E7,0E0,0E0,0E0,1.1507104E7,8.7741336E7,9.100077E7,0E0,3.667587E7,0E0,9.533256E6,4.094304E6,3.0743892E7,6.443385E7,1.1449673E8,5.923552E7,2.5529624E7,0E0,0E0,0E0,0E0,0E0,0E0,0E0,0E0,0E0,0E0,0E0,0E0,0E0,0E0,0E0,0E0],"parents":[2147483647,0,0,1,1,2,2,3,3,4,4,5,5,6,6,7,7,8,8,12,12,13,13,14,14,16,16,18,18,19,19,20,20,21,21,22,22,23,23,24,24],"right_children":[2,4,6,8,10,12,14,16,18,-1,-1,-1,20,22,24,-1,26,-1,28,30,32,34,36,38,40,-1,-1,-1,-1,-1,-1,-1,-1,-1,-1,-1,-1,-1,-1,-1,-1],"split_conditions":[1E0,3.002E1,2.394E1,2.805E1,3.366E1,1E0,2.5555E1,1.748E1,2.86E1,3.7224496E2,4.772618E2,-1.5238803E2,1E0,2.47E1,2E0,-5.4434864E1,1.78E1,2.3715076E2,2.9735E1,2.1945E1,2.299E1,1E0,1E0,2.679E1,4.1325E1,3.0650998E2,8.03869E1,5.7236866E1,1.5417844E2,-9.892081E1,-1.6897057E2,-1.1572585E2,-2.2864528E0,-1.275783E2,3.4376976E1,-2.9232786E1,1.9180124E2,-1.4653845E2,-7.563373E1,-3.271569E1,-1.091173E2],"split_indices":[5,1,1,1,1,2,1,1,1,0,0,0,3,1,2,0,1,0,1,1,1,3,2,1,1,0,0,0,0,0,0,0,0,0,0,0,0,0,0,0,0],"split_type":[0,0,0,0,0,0,0,0,0,0,0,0,0,0,0,0,0,0,0,0,0,0,0,0,0,0,0,0,0,0,0,0,0,0,0,0,0,0,0,0,0],"sum_hessian":[8.42E2,1.75E2,6.67E2,8.7E1,8.8E1,8.8E1,5.79E2,6.9E1,1.8E1,3.5E1,5.3E1,4.1E1,4.7E1,4.5E1,5.34E2,1E0,6.8E1,5E0,1.3E1,2.1E1,2.6E1,2.3E1,2.2E1,3.6E2,1.74E2,1E0,6.7E1,7E0,6E0,1.2E1,9E0,1.7E1,9E0,1.2E1,1.1E1,1.1E1,1.1E1,3.3E1,3.27E2,1.63E2,1.1E1],"tree_param":{"num_deleted":"0","num_feature":"7","num_nodes":"41","size_leaf_vector":"1"}},{"base_weights":[9.6229065E1,5.337231E3,-1.3268125E3,2.1824902E3,8.83744E3,-2.1355017E3,3.451274E2,9.1583386E2,2.9613115E3,7.7031226E3,1.1115197E4,-2.7032048E3,-1.3812128E3,-4.741339E1,1.2842861E3,5.275075E1,2.5715513E3,2.4929883E3,2.293914E2,2.8336597E2,9.093228E3,1.4695166E2,5.6623413E2,-3.0906572E3,-2.2850735E3,-1.4648921E3,3.04977E2,1.4158541E3,-4.5818762E2,6.896446E2,2.388163E3,-2.9826344E1,3.7395752E1,1.9272832E2,2.1613655E1,2.9884723E2,1.1458463E2,2.2958572E2,4.6903687E2,-1.6249504E2,-7.752254E1,-1.0464888E2,-2.0515385E2,-9.04661E1,-5.802608E1,2.1117284E2,-2.9984129E1,-7.15782E1,1.7403125E2,-1.0960741E0,-4.1070534E1,7.8365944E1,1.0594717E1,1.9814764E1,3.299919E2],"categories":[],"categories_nodes":[],"categories_segments":[],"categories_sizes":[],"default_left":[0,0,0,0,0,0,0,0,0,0,0,0,0,0,0,0,0,0,0,0,0,0,0,0,0,0,0,0,0,0,0,0,0,0,0,0,0,0,0,0,0,0,0,0,0,0,0,0,0,0,0,0,0,0,0],"id":25,"left_children":[1,3,5,7,9,11,13,15,17,19,21,23,25,27,29,31,33,35,-1,-1,37,-1,-1,39,41,43,45,47,49,51,53,-1,-1,-1,-1,-1,-1,-1,-1,-1,-1,-1,-1,-1,-1,-1,-1,-1,-1,-1,-1,-1,-1,-1,-1],"loss_changes":[6.2868547E9,1.9683185E9,8.971661E8,9.199178E7,1.3399245E8,1.8767718E8,8.0059704E7,5.4167184E7,3.3505056E7,1.1826483E8,1.1248896E7,3.408717E7,2.7820064E7,9.321391E7,4.036333E7,1.2181371E7,3.40152E7,1.9965344E7,0E0,0E0,9.30048E5,0E0,0E0,2.6600704E7,3.5415424E7,1.729456E7,3.7981636E7,2.048778E8,1.9155882E7,1.7698182E7,1.819447E8,0E0,0E0,0E0,0E0,0E0,0E0,0E0,0E0,0E0,0E0,0E0,0E0,0E0,0E0,0E0,0E0,0E0,0E0,0E0,0E0,0E0,0E0,0E0,0E0],"parents":[2147483647,0,0,1,1,2,2,3,3,4,4,5,5,6,6,7,7,8,8,9,9,10,10,11,11,12,12,13,13,14,14,15,15,16,16,17,17,20,20,23,23,24,24,25,25,26,26,27,27,28,28,29,29,30,30],"right_children":[2,4,6,8,10,12,14,16,18,20,22,24,26,28,30,32,34,36,-1,-1,38,-1,-1,40,42,44,46,48,50,52,54,-1,-1,-1,-1,-1,-1,-1,-1,-1,-1,-1,-1,-1,-1,-1,-1,-1,-1,-1,-1,-1,-1,-1,-1],"split_conditions":[1E0,3.08E1,4.8E1,3.2E1,5.1E1,3.4E1,5.9E1,2.805E1,2.831E1,3.54E1,3.0875E1,1E0,4E0,2.74E1,1E0,2.318E1,2.5E1,1.78E1,2.293914E2,2.8336597E2,1.9E1,1.4695166E2,5.6623413E2,3.77E1,3.894E1,2.9735E1,3.6E1,2.486E1,3.22E1,2.86E1,3.37E1,-2.9826344E1,3.7395752E1,1.9272832E2,2.1613655E1,2.9884723E2,1.1458463E2,2.2958572E2,4.6903687E2,-1.6249504E2,-7.752254E1,-1.0464888E2,-2.0515385E2,-9.04661E1,-5.802608E1,2.1117284E2,-2.9984129E1,-7.15782E1,1.7403125E2,-1.0960741E0,-4.1070534E1,7.8365944E1,1.0594717E1,1.9814764E1,3.299919E2],"split_indices":[5,1,0,0,0,0,0,1,1,1,1,2,2,1,2,1,0,1,0,0,0,0,0,1,1,1,0,1,1,1,1,0,0,0,0,0,0,0,0,0,0,0,0,0,0,0,0,0,0,0,0,0,0,0,0],"split_type":[0,0,0,0,0,0,0,0,0,0,0,0,0,0,0,0,0,0,0,0,0,0,0,0,0,0,0,0,0,0,0,0,0,0,0,0,0,0,0,0,0,0,0,0,0,0,0,0,0,0,0,0,0,0,0],"sum_hessian":[8.41E2,1.79E2,6.62E2,9.5E1,8.4E1,4.46E2,2.16E2,3.7E1,5.8E1,5.9E1,2.5E1,2.53E2,1.93E2,1.53E2,6.3E1,2.5E1,1.2E1,4.7E1,1.1E1,2.6E1,3.3E1,1E0,2.4E1,1.28E2,1.25E2,1.84E2,9E0,3.3E1,1.2E2,4.2E1,2.1E1,1.3E1,1.2E1,7E0,5E0,1E0,4.6E1,3E0,3E1,1.15E2,1.3E1,1.15E2,1E1,8.4E1,1E2,1E0,8E0,1.4E1,1.9E1,5.5E1,6.5E1,1.4E1,2.8E1,1.5E1,6E0],"tree_param":{"num_deleted":"0","num_feature":"7","num_nodes":"55","size_leaf_vector":"1"}},{"base_weights":[5.9464424E1,5.141314E3,-1.2300488E3,1.7082158E3,8.246626E3,-2.1549207E3,-1.0772448E3,2.9137604E2,1.5854155E3,7.395592E3,4.8369034E2,-1.4284181E2,-1.5070931E3,1.6678117E2,-1.19301E3,1.4303429E2,1.9663131E3,3.7275464E2,9.712569E1,-1.9424316E3,-3.3278516E2,-9.215547E2,1.2068433E3,-2.6045247E3,-1.102749E3,-6.596653E1,1.5333171E1,8.687497E1,1.2720803E2,-1.1533535E2,-7.3796165E1,1.2568772E2,-1.0037151E2,-1.1880249E2,3.0191471E1,1.4383653E2,-1.04761305E1,-1.3586739E2,-3.228628E1,-1.4504425E1,-6.056534E1],"categories":[],"categories_nodes":[],"categories_segments":[],"categories_sizes":[],"default_left":[0,0,0,0,0,0,0,0,0,0,0,0,0,0,0,0,0,0,0,0,0,0,0,0,0,0,0,0,0,0,0,0,0,0,0,0,0,0,0,0,0],"id":26,"left_children":[1,3,5,7,9,11,13,-1,15,17,-1,-1,19,21,23,25,27,-1,-1,29,31,33,35,37,39,-1,-1,-1,-1,-1,-1,-1,-1,-1,-1,-1,-1,-1,-1,-1,-1],"loss_changes":[5.504386E9,1.7982556E9,9.236589E7,3.2240816E7,3.655424E7,3.8438144E7,8.329562E7,0E0,4.422011E7,4.986112E6,0E0,0E0,2.5425888E7,5.7709016E7,6.4397504E7,4.7117295E6,4.041568E6,0E0,0E0,2.883168E6,7.6550344E7,5.690132E7,6.209719E7,5.096272E6,4.358253E7,0E0,0E0,0E0,0E0,0E0,0E0,0E0,0E0,0E0,0E0,0E0,0E0,0E0,0E0,0E0,0E0],"parents":[2147483647,0,0,1,1,2,2,3,3,4,4,5,5,6,6,8,8,9,9,12,12,13,13,14,14,15,15,16,16,19,19,20,20,21,21,22,22,23,23,24,24],"right_children":[2,4,6,8,10,12,14,-1,16,18,-1,-1,20,22,24,26,28,-1,-1,30,32,34,36,38,40,-1,-1,-1,-1,-1,-1,-1,-1,-1,-1,-1,-1,-1,-1,-1,-1],"split_conditions":[1E0,3E1,2.394E1,1.78E1,3.6385E1,1E0,2.5555E1,2.9137604E2,2.2515E1,3.6195E1,4.8369034E2,-1.4284181E2,2.299E1,2.47E1,2.6315E1,1.83E1,2.805E1,3.7275464E2,9.712569E1,2.0615E1,2.3275E1,1E0,2.5175E1,3E0,2.7835E1,-6.596653E1,1.5333171E1,8.687497E1,1.2720803E2,-1.1533535E2,-7.3796165E1,1.2568772E2,-1.0037151E2,-1.1880249E2,3.0191471E1,1.4383653E2,-1.04761305E1,-1.3586739E2,-3.228628E1,-1.4504425E1,-6.056534E1],"split_indices":[5,1,1,1,1,3,1,0,1,1,0,0,1,1,1,1,1,0,0,1,1,3,1,2,1,0,0,0,0,0,0,0,0,0,0,0,0,0,0,0,0],"split_type":[0,0,0,0,0,0,0,0,0,0,0,0,0,0,0,0,0,0,0,0,0,0,0,0,0,0,0,0,0,0,0,0,0,0,0,0,0,0,0,0,0],"sum_hessian":[8.38E2,1.69E2,6.69E2,8.1E1,8.8E1,9.3E1,5.76E2,1E0,8E1,5.9E1,2.9E1,4.3E1,5E1,4.9E1,5.27E2,1.7E1,6.3E1,5.8E1,1E0,3.6E1,1.4E1,2.4E1,2.5E1,3E1,4.97E2,1E0,1.6E1,4.8E1,1.5E1,1.8E1,1.8E1,5E0,9E0,1.2E1,1.2E1,1.1E1,1.4E1,2.8E1,2E0,5.9E1,4.38E2],"tree_param":{"num_deleted":"0","num_feature":"7","num_nodes":"41","size_leaf_vector":"1"}},{"base_weights":[4.028538E1,4.981844E3,-1.2209785E3,1.7675037E3,7.923511E3,-1.7557596E3,-8.131966E2,-5.9612743E1,1.8181381E3,7.191598E3,4.8030637E2,-2.2326123E3,-1.5217339E3,-1.9362003E3,-6.907563E2,2.840916E2,1.700292E3,3.6366934E2,1.5247862E2,-1.410129E2,-1.7939849E3,3.2533588E2,-1.5958928E3,-1.20474464E2,-1.3610061E3,1.14018135E2,-1.0047207E3,1.8577122E1,9.744269E1,-6.402576E1,-1.2375138E2,-3.9837757E1,-9.076398E1,4.5544033E1,-1.11872856E2,-2.579487E1,7.7951164E1,-1.11148155E2,-3.7340107E1],"categories":[],"categories_nodes":[],"categories_segments":[],"categories_sizes":[],"default_left":[0,0,0,0,0,0,0,0,0,0,0,0,0,0,0,0,0,0,0,0,0,0,0,0,0,0,0,0,0,0,0,0,0,0,0,0,0,0,0],"id":27,"left_children":[1,3,5,7,9,11,13,-1,15,17,-1,19,21,23,25,-1,27,-1,-1,-1,29,-1,31,-1,33,35,37,-1,-1,-1,-1,-1,-1,-1,-1,-1,-1,-1,-1],"loss_changes":[5.2414746E9,1.602889E9,1.4468186E8,1.4606512E7,4.052275E7,2.885376E7,5.1187856E7,0E0,2.767552E7,1.78176E5,0E0,1.8911968E7,1.276743E8,6.793296E6,8.753856E7,0E0,2.6028304E7,0E0,0E0,0E0,1.64136E7,0E0,3.2916416E7,0E0,3.987081E7,9.000695E7,7.657754E7,0E0,0E0,0E0,0E0,0E0,0E0,0E0,0E0,0E0,0E0,0E0,0E0],"parents":[2147483647,0,0,1,1,2,2,3,3,4,4,5,5,6,6,8,8,9,9,11,11,12,12,13,13,14,14,16,16,20,20,22,22,24,24,25,25,26,26],"right_children":[2,4,6,8,10,12,14,-1,16,18,-1,20,22,24,26,-1,28,-1,-1,-1,30,-1,32,-1,34,36,38,-1,-1,-1,-1,-1,-1,-1,-1,-1,-1,-1,-1],"split_conditions":[1E0,3.002E1,1E0,1.748E1,3.71E1,2.728E1,2.299E1,-5.9612743E1,1.78E1,3.707E1,4.8030637E2,1E0,2.74E1,2.14E1,2.794E1,2.840916E2,2.261E1,3.6366934E2,1.5247862E2,-1.410129E2,2.4985E1,3.2533588E2,3.02E1,-1.20474464E2,2.18E1,2.679E1,2.964E1,1.8577122E1,9.744269E1,-6.402576E1,-1.2375138E2,-3.9837757E1,-9.076398E1,4.5544033E1,-1.11872856E2,-2.579487E1,7.7951164E1,-1.11148155E2,-3.7340107E1],"split_indices":[5,1,2,1,1,1,1,0,1,1,0,3,1,1,1,0,1,0,0,0,1,0,1,0,1,1,1,0,0,0,0,0,0,0,0,0,0,0,0],"split_type":[0,0,0,0,0,0,0,0,0,0,0,0,0,0,0,0,0,0,0,0,0,0,0,0,0,0,0,0,0,0,0,0,0,0,0,0,0,0,0],"sum_hessian":[8.39E2,1.7E2,6.69E2,8.2E1,8.8E1,2.88E2,3.81E2,1E0,8.1E1,6.5E1,2.3E1,9.2E1,1.96E2,3.6E1,3.45E2,1E0,8E1,6.3E1,2E0,3.7E1,5.5E1,1E0,1.95E2,1.8E1,1.8E1,9.7E1,2.48E2,1.3E1,6.7E1,3.3E1,2.2E1,4.3E1,1.52E2,5E0,1.3E1,6.8E1,2.9E1,4.2E1,2.06E2],"tree_param":{"num_deleted":"0","num_feature":"7","num_nodes":"39","size_leaf_vector":"1"}},{"base_weights":[3.851926E1,-1.137847E3,4.619931E3,-2.049052E3,7.259116E1,1.7790461E3,7.541097E3,-2.401301E3,-1.2752194E3,-3.0262006E2,1.3846963E3,1.043007E3,2.8638196E3,2.4720076E2,8.275435E3,-2.9331782E3,-1.7660602E3,9.67747E2,-1.4860068E3,3.521013E2,-6.025071E2,8.0026483E2,2.5432812E3,6.558949E2,2.0057721E3,2.3074714E3,4.214662E3,6.295508E3,4.6915976E2,-1.3910234E2,-2.0035686E2,-2.75305E1,-9.865616E1,-1.3443245E2,2.2314258E2,-1.8797382E2,-6.4841805E1,-5.1220623E1,6.634711E1,-4.7639553E1,-3.14957E-1,8.096606E1,1.603882E1,2.8675207E1,3.2004532E2,-1.0887042E1,6.902926E1,2.500507E2,4.2010525E1,1.487461E2,9.349325E1,6.1631786E1,2.216668E2,5.1613226E2,2.6607092E2],"categories":[],"categories_nodes":[],"categories_segments":[],"categories_sizes":[],"default_left":[0,0,0,0,0,0,0,0,0,0,0,0,0,0,0,0,0,0,0,0,0,0,0,0,0,0,0,0,0,0,0,0,0,0,0,0,0,0,0,0,0,0,0,0,0,0,0,0,0,0,0,0,0,0,0],"id":28,"left_children":[1,3,5,7,9,11,13,15,17,19,21,23,25,-1,27,29,31,33,35,37,39,41,43,45,47,49,51,53,-1,-1,-1,-1,-1,-1,-1,-1,-1,-1,-1,-1,-1,-1,-1,-1,-1,-1,-1,-1,-1,-1,-1,-1,-1,-1,-1],"loss_changes":[4.51081E9,7.3471834E8,1.4056612E9,1.0051891E8,1.4171389E8,6.727539E7,1.1928576E8,8.266611E7,5.864555E7,4.419284E7,4.1299976E7,1.881012E7,1.6578624E7,0E0,8.129843E7,1.1575168E7,2.9366272E7,1.5257339E8,4.2862784E7,9.663294E7,3.2155692E7,1.6760592E7,1.5590093E8,2.5625224E7,4.816518E7,2.323488E6,4.04128E5,4.706144E7,0E0,0E0,0E0,0E0,0E0,0E0,0E0,0E0,0E0,0E0,0E0,0E0,0E0,0E0,0E0,0E0,0E0,0E0,0E0,0E0,0E0,0E0,0E0,0E0,0E0,0E0,0E0],"parents":[2147483647,0,0,1,1,2,2,3,3,4,4,5,5,6,6,7,7,8,8,9,9,10,10,11,11,12,12,14,14,15,15,16,16,17,17,18,18,19,19,20,20,21,21,22,22,23,23,24,24,25,25,26,26,27,27],"right_children":[2,4,6,8,10,12,14,16,18,20,22,24,26,-1,28,30,32,34,36,38,40,42,44,46,48,50,52,54,-1,-1,-1,-1,-1,-1,-1,-1,-1,-1,-1,-1,-1,-1,-1,-1,-1,-1,-1,-1,-1,-1,-1,-1,-1,-1,-1],"split_conditions":[1E0,4.3E1,3.01E1,2E0,5.9E1,4.3E1,2.8E1,2.7E1,2E1,2.7835E1,1E0,2.805E1,5.7E1,2.4720076E2,3.443E1,2.6E1,2.442E1,1.9E1,2.3E1,2.486E1,2E0,2.86E1,3.37E1,1E0,2.86E1,4.6E1,2.37E1,3.04E1,4.6915976E2,-1.3910234E2,-2.0035686E2,-2.75305E1,-9.865616E1,-1.3443245E2,2.2314258E2,-1.8797382E2,-6.4841805E1,-5.1220623E1,6.634711E1,-4.7639553E1,-3.14957E-1,8.096606E1,1.603882E1,2.8675207E1,3.2004532E2,-1.0887042E1,6.902926E1,2.500507E2,4.2010525E1,1.487461E2,9.349325E1,6.1631786E1,2.216668E2,5.1613226E2,2.6607092E2],"split_indices":[6,0,1,2,0,0,0,0,0,1,2,1,0,0,1,0,1,0,0,1,2,1,1,3,1,0,1,1,0,0,0,0,0,0,0,0,0,0,0,0,0,0,0,0,0,0,0,0,0,0,0,0,0,0,0],"split_type":[0,0,0,0,0,0,0,0,0,0,0,0,0,0,0,0,0,0,0,0,0,0,0,0,0,0,0,0,0,0,0,0,0,0,0,0,0,0,0,0,0,0,0,0,0,0,0,0,0,0,0,0,0,0,0],"sum_hessian":[8.35E2,6.65E2,1.7E2,3.79E2,2.86E2,8.7E1,8.3E1,2.59E2,1.2E2,2.23E2,6.3E1,5.3E1,3.4E1,2E1,6.3E1,1.39E2,1.2E2,1E1,1.1E2,7E1,1.53E2,4.3E1,2E1,3.9E1,1.4E1,2.6E1,8E0,2.5E1,3.8E1,1.25E2,1.4E1,1.8E1,1.02E2,5E0,5E0,7E0,1.03E2,2.9E1,4.1E1,9.6E1,5.7E1,1.5E1,2.8E1,1.4E1,6E0,1.8E1,2.1E1,3E0,1.1E1,8E0,1.8E1,1E0,7E0,3E0,2.2E1],"tree_param":{"num_deleted":"0","num_feature":"7","num_nodes":"55","size_leaf_vector":"1"}},{"base_weights":[6.701464E1,-1.0306101E3,4.25015E3,-1.8999113E3,1.06032936E2,1.3995494E3,6.926833E3,-2.2403145E3,-1.1672598E3,-3.4344012E2,9.378405E2,1.0774691E3,4.0354072E3,5.8264795E3,9.411301E3,-2.9249802E3,-1.785591E3,1.4968177E3,-1.3926891E3,-6.964406E2,2.5304584E2,4.7596042E2,1.8084121E3,3.7620605E2,1.6108041E3,6.0091015E1,2.119689E2,4.700364E3,7.678501E3,2.5599504E2,5.094629E2,-1.7908037E2,-1.2360345E2,-2.3822973E1,-9.811906E1,2.1217986E2,-1.8421255E2,-1.6885759E2,-6.148899E1,-1.0383988E2,-2.4630701E1,6.484837E1,-3.706433E1,-1.5858836E1,5.9489086E1,5.233942E2,6.2292145E1,-3.3569836E1,5.1288105E1,2.7526358E2,6.961028E1,1.9176915E2,2.642883E2,1.7701431E2,4.0611093E2],"categories":[],"categories_nodes":[],"categories_segments":[],"categories_sizes":[],"default_left":[0,0,0,0,0,0,0,0,0,0,0,0,0,0,0,0,0,0,0,0,0,0,0,0,0,0,0,0,0,0,0,0,0,0,0,0,0,0,0,0,0,0,0,0,0,0,0,0,0,0,0,0,0,0,0],"id":29,"left_children":[1,3,5,7,9,11,13,15,17,19,21,23,25,27,29,31,33,35,37,39,41,43,45,47,49,-1,-1,51,53,-1,-1,-1,-1,-1,-1,-1,-1,-1,-1,-1,-1,-1,-1,-1,-1,-1,-1,-1,-1,-1,-1,-1,-1,-1,-1],"loss_changes":[3.8658422E9,6.592542E8,1.3255826E9,9.165696E7,1.0874587E8,6.866235E7,1.9120691E8,7.478989E7,7.535307E7,3.997204E7,4.015344E7,2.856664E7,1.06768E5,9.947162E7,3.463373E7,2.1182784E7,3.540131E7,1.57947E8,3.2378336E7,3.2458012E7,7.4659784E7,3.887613E7,1.57463E8,2.4505376E7,2.979384E7,0E0,0E0,1.500608E6,1.347776E7,0E0,0E0,0E0,0E0,0E0,0E0,0E0,0E0,0E0,0E0,0E0,0E0,0E0,0E0,0E0,0E0,0E0,0E0,0E0,0E0,0E0,0E0,0E0,0E0,0E0,0E0],"parents":[2147483647,0,0,1,1,2,2,3,3,4,4,5,5,6,6,7,7,8,8,9,9,10,10,11,11,12,12,13,13,14,14,15,15,16,16,17,17,18,18,19,19,20,20,21,21,22,22,23,23,24,24,27,27,28,28],"right_children":[2,4,6,8,10,12,14,16,18,20,22,24,26,28,30,32,34,36,38,40,42,44,46,48,50,-1,-1,52,54,-1,-1,-1,-1,-1,-1,-1,-1,-1,-1,-1,-1,-1,-1,-1,-1,-1,-1,-1,-1,-1,-1,-1,-1,-1,-1],"split_conditions":[1E0,4.3E1,3.002E1,2E0,5.7E1,5.7E1,5.1E1,2.4E1,2E1,2E0,3.458E1,3.2E1,2.37E1,3.6385E1,3.1825E1,2.831E1,2.6E1,3.0685E1,2.3E1,4.5E1,1E0,6E1,3.496E1,2.318E1,1.78E1,6.0091015E1,2.119689E2,1E0,1.9E1,2.5599504E2,5.094629E2,-1.7908037E2,-1.2360345E2,-2.3822973E1,-9.811906E1,2.1217986E2,-1.8421255E2,-1.6885759E2,-6.148899E1,-1.0383988E2,-2.4630701E1,6.484837E1,-3.706433E1,-1.5858836E1,5.9489086E1,5.233942E2,6.2292145E1,-3.3569836E1,5.1288105E1,2.7526358E2,6.961028E1,1.9176915E2,2.642883E2,1.7701431E2,4.0611093E2],"split_indices":[6,0,1,2,0,0,0,0,0,2,1,0,1,1,1,1,0,1,0,0,3,0,1,1,1,0,0,2,0,0,0,0,0,0,0,0,0,0,0,0,0,0,0,0,0,0,0,0,0,0,0,0,0,0,0],"split_type":[0,0,0,0,0,0,0,0,0,0,0,0,0,0,0,0,0,0,0,0,0,0,0,0,0,0,0,0,0,0,0,0,0,0,0,0,0,0,0,0,0,0,0,0,0,0,0,0,0,0,0,0,0,0,0],"sum_hessian":[8.4E2,6.66E2,1.74E2,3.77E2,2.89E2,8.5E1,8.9E1,2.56E2,1.21E2,1.88E2,1.01E2,7.7E1,8E0,6.4E1,2.5E1,1E2,1.56E2,9E0,1.12E2,1.18E2,7E1,6.7E1,3.4E1,3.4E1,4.3E1,1E0,7E0,4.2E1,2.2E1,5E0,2E1,3.8E1,6.2E1,1.9E1,1.37E2,6E0,3E0,7E0,1.05E2,1.4E1,1.04E2,3.4E1,3.6E1,3.2E1,3.5E1,1E0,3.3E1,1.3E1,2.1E1,1E0,4.2E1,2E1,2.2E1,3E0,1.9E1],"tree_param":{"num_deleted":"0","num_feature":"7","num_nodes":"55","size_leaf_vector":"1"}},{"base_weights":[-6.700805E0,-1.0929005E3,4.3446035E3,-1.7547081E3,3.1543628E2,1.4297622E3,6.91587E3,-2.6493286E3,-1.4470385E3,-6.2662415E1,1.2772062E3,3.128833E2,2.1299736E3,5.0178633E3,7.893385E3,-1.7417062E2,-2.110301E3,-1.536531E3,2.5416357E2,7.641963E2,-3.354152E2,5.614269E2,2.8299062E3,-1.4321883E2,1.9622793E3,2.68382E2,1.9506964E3,1.9880768E2,6.0028384E3,7.074638E3,9.549258E3,-4.2654392E1,-1.3736635E2,-4.366188E1,-8.5077354E1,-7.7349785E1,1.652778E2,-1.9430445E1,1.695196E2,-4.5190647E1,-1.0512007E0,7.98637E1,3.1421742E-1,3.0181513E1,3.7764496E2,-7.1336914E1,4.311443E0,2.3781433E2,-5.329043E0,4.602269E1,1.2969716E2,1.8462695E2,3.394367E2,2.6011127E2,3.9125256E2,6.13812E2,3.342722E2],"categories":[],"categories_nodes":[],"categories_segments":[],"categories_sizes":[],"default_left":[0,0,0,0,0,0,0,0,0,0,0,0,0,0,0,0,0,0,0,0,0,0,0,0,0,0,0,0,0,0,0,0,0,0,0,0,0,0,0,0,0,0,0,0,0,0,0,0,0,0,0,0,0,0,0,0,0],"id":30,"left_children":[1,3,5,7,9,11,13,15,17,19,21,23,25,27,29,-1,31,33,35,37,39,41,43,45,47,-1,49,-1,51,53,55,-1,-1,-1,-1,-1,-1,-1,-1,-1,-1,-1,-1,-1,-1,-1,-1,-1,-1,-1,-1,-1,-1,-1,-1,-1,-1],"loss_changes":[3.9749123E9,6.2782163E8,1.2492444E9,1.2222976E8,7.862712E7,6.189768E7,1.2551603E8,4.4801856E7,5.2610624E7,3.5438692E7,6.6206024E7,2.4354412E7,1.7970912E7,9.991744E6,9.719808E6,0E0,5.612032E7,3.419616E7,1.0404246E8,1.1938974E8,2.1067512E7,2.47168E7,1.9521987E8,7.7800405E6,4.0969804E7,0E0,2.9422E7,0E0,2.167168E6,1.8305792E7,4.288115E7,0E0,0E0,0E0,0E0,0E0,0E0,0E0,0E0,0E0,0E0,0E0,0E0,0E0,0E0,0E0,0E0,0E0,0E0,0E0,0E0,0E0,0E0,0E0,0E0,0E0,0E0],"parents":[2147483647,0,0,1,1,2,2,3,3,4,4,5,5,6,6,7,7,8,8,9,9,10,10,11,11,12,12,13,13,14,14,16,16,17,17,18,18,19,19,20,20,21,21,22,22,23,23,24,24,26,26,28,28,29,29,30,30],"right_children":[2,4,6,8,10,12,14,16,18,20,22,24,26,28,30,-1,32,34,36,38,40,42,44,46,48,-1,50,-1,52,54,56,-1,-1,-1,-1,-1,-1,-1,-1,-1,-1,-1,-1,-1,-1,-1,-1,-1,-1,-1,-1,-1,-1,-1,-1,-1,-1],"split_conditions":[1E0,4.8E1,3.002E1,2.3E1,5.9E1,3.2E1,3.1E1,2.793E1,4E0,2.74E1,1E0,2.805E1,1.78E1,1E0,3.71E1,-1.7417062E2,3.1065E1,2.508E1,2.964E1,2.6315E1,3.135E1,2.86E1,3.37E1,2.0235E1,2.86E1,2.68382E2,4.3E1,1.9880768E2,3.34E1,4.5E1,2E0,-4.2654392E1,-1.3736635E2,-4.366188E1,-8.5077354E1,-7.7349785E1,1.652778E2,-1.9430445E1,1.695196E2,-4.5190647E1,-1.0512007E0,7.98637E1,3.1421742E-1,3.0181513E1,3.7764496E2,-7.1336914E1,4.311443E0,2.3781433E2,-5.329043E0,4.602269E1,1.2969716E2,1.8462695E2,3.394367E2,2.6011127E2,3.9125256E2,6.13812E2,3.342722E2],"split_indices":[6,0,1,0,0,0,0,1,2,1,2,1,1,2,1,0,1,1,1,1,1,1,1,1,1,0,0,0,1,0,2,0,0,0,0,0,0,0,0,0,0,0,0,0,0,0,0,0,0,0,0,0,0,0,0,0,0],"split_type":[0,0,0,0,0,0,0,0,0,0,0,0,0,0,0,0,0,0,0,0,0,0,0,0,0,0,0,0,0,0,0,0,0,0,0,0,0,0,0,0,0,0,0,0,0,0,0,0,0,0,0,0,0,0,0,0,0],"sum_hessian":[8.39E2,6.72E2,1.67E2,4.57E2,2.15E2,7.9E1,8.8E1,1.15E2,3.42E2,1.55E2,6E1,3.1E1,4.8E1,3.2E1,5.6E1,4.3E1,7.2E1,3.25E2,1.7E1,3.8E1,1.17E2,4.2E1,1.8E1,2.5E1,6E0,1E0,4.7E1,1.8E1,1.4E1,4.1E1,1.5E1,2.5E1,4.7E1,6.6E1,2.59E2,1.1E1,6E0,2.7E1,1.1E1,4.1E1,7.6E1,1.4E1,2.8E1,1.3E1,5E0,3E0,2.2E1,2E0,4E0,1.9E1,2.8E1,5E0,9E0,1.4E1,2.7E1,6E0,9E0],"tree_param":{"num_deleted":"0","num_feature":"7","num_nodes":"57","size_leaf_vector":"1"}},{"base_weights":[9.707367E1,4.115709E3,-9.4756006E2,3.0296797E3,5.896309E3,-1.5879478E3,3.402107E2,1.6271638E3,3.4560417E3,4.5953154E3,3.2651608E2,-1.9808773E3,-9.9309674E2,2.5628024E2,2.1358738E3,1.0752923E2,2.832106E2,2.651099E3,3.8468994E3,7.0062954E3,2.801246E3,-2.229866E3,-1.2548135E3,-1.0755867E3,3.9452765E2,-2.5246631E2,4.6934677E2,4.2133022E1,3.2605552E3,3.1954395E1,-6.46544E0,9.73167E1,1.738605E2,2.0891846E2,1.3888971E2,6.041805E2,1.5520369E2,1.5179277E2,3.8632717E1,-1.2965215E2,-9.0092384E1,1.22476845E1,-1.1359905E2,-6.3387184E1,-4.0682648E1,2.0736748E2,-1.9774475E1,1.4484958E1,-7.901624E1,7.062072E1,1.710071E1,3.4126904E2,3.3150173E1],"categories":[],"categories_nodes":[],"categories_segments":[],"categories_sizes":[],"default_left":[0,0,0,0,0,0,0,0,0,0,0,0,0,0,0,0,0,0,0,0,0,0,0,0,0,0,0,0,0,0,0,0,0,0,0,0,0,0,0,0,0,0,0,0,0,0,0,0,0,0,0,0,0],"id":31,"left_children":[1,3,5,7,9,11,13,15,17,19,-1,21,23,25,27,-1,29,31,33,35,37,39,41,43,45,47,49,-1,51,-1,-1,-1,-1,-1,-1,-1,-1,-1,-1,-1,-1,-1,-1,-1,-1,-1,-1,-1,-1,-1,-1,-1,-1],"loss_changes":[3.6015877E9,3.2441574E8,5.621422E8,6.1350144E7,2.4431104E7,1.0438208E8,3.366398E7,1.9087608E7,1.6544064E7,8.85103E7,0E0,4.655533E7,2.1371488E7,2.3749012E7,1.1796984E7,0E0,1.4038962E6,1.1280816E7,7.884032E6,1.6061965E8,5.269152E6,2.6727936E7,1.1039357E8,7.676E6,3.4252964E7,4.7252556E7,1.8009752E7,0E0,4.177385E7,0E0,0E0,0E0,0E0,0E0,0E0,0E0,0E0,0E0,0E0,0E0,0E0,0E0,0E0,0E0,0E0,0E0,0E0,0E0,0E0,0E0,0E0,0E0,0E0],"parents":[2147483647,0,0,1,1,2,2,3,3,4,4,5,5,6,6,7,7,8,8,9,9,11,11,12,12,13,13,14,14,16,16,17,17,18,18,19,19,20,20,21,21,22,22,23,23,24,24,25,25,26,26,28,28],"right_children":[2,4,6,8,10,12,14,16,18,20,-1,22,24,26,28,-1,30,32,34,36,38,40,42,44,46,48,50,-1,52,-1,-1,-1,-1,-1,-1,-1,-1,-1,-1,-1,-1,-1,-1,-1,-1,-1,-1,-1,-1,-1,-1,-1,-1],"split_conditions":[1E0,4.4E1,4.8E1,2.2E1,5.2E1,3.5E1,6.4E1,1E0,1E0,4.6E1,3.2651608E2,2E0,4E0,5.2E1,1E0,1.0752923E2,1.9E1,1E0,3E0,1E0,5.1E1,2.4E1,2.7E1,2E0,3.6E1,5.1E1,5.3E1,4.2133022E1,2E0,3.1954395E1,-6.46544E0,9.73167E1,1.738605E2,2.0891846E2,1.3888971E2,6.041805E2,1.5520369E2,1.5179277E2,3.8632717E1,-1.2965215E2,-9.0092384E1,1.22476845E1,-1.1359905E2,-6.3387184E1,-4.0682648E1,2.0736748E2,-1.9774475E1,1.4484958E1,-7.901624E1,7.062072E1,1.710071E1,3.4126904E2,3.3150173E1],"split_indices":[5,0,0,0,0,0,0,2,2,0,0,2,2,0,2,0,0,3,2,2,0,0,0,2,0,0,0,0,2,0,0,0,0,0,0,0,0,0,0,0,0,0,0,0,0,0,0,0,0,0,0,0,0],"split_type":[0,0,0,0,0,0,0,0,0,0,0,0,0,0,0,0,0,0,0,0,0,0,0,0,0,0,0,0,0,0,0,0,0,0,0,0,0,0,0,0,0,0,0,0,0,0,0,0,0,0,0,0,0],"sum_hessian":[8.56E2,1.76E2,6.8E2,1.11E2,6.5E1,4.54E2,2.26E2,2.7E1,8.4E1,2.4E1,4.1E1,2.72E2,1.82E2,2.17E2,9E0,1.9E1,8E0,3E1,5.4E1,9E0,1.5E1,2.01E2,7.1E1,1.72E2,1E1,6.4E1,1.53E2,5E0,4E0,4E0,4E0,1.8E1,1.2E1,3.9E1,1.5E1,3E0,6E0,1.3E1,2E0,1.06E2,9.5E1,2.9E1,4.2E1,9.7E1,7.5E1,1E0,9E0,4.6E1,1.8E1,1.7E1,1.36E2,1E0,3E0],"tree_param":{"num_deleted":"0","num_feature":"7","num_nodes":"53","size_leaf_vector":"1"}},{"base_weights":[6.2120567E1,3.828598E3,-8.9080096E2,2.7158354E3,5.629176E3,-1.5444773E3,5.0582486E2,1.9783418E3,2.916555E3,5.100143E3,3.577141E2,-1.9897938E3,-9.548954E2,-1.7207237E2,7.7545996E2,1.3018408E3,2.7824941E3,4.7303657E3,2.5689172E3,7.3354873E3,4.5136724E3,-2.3124211E3,-1.0810569E3,-1.0282253E3,3.9185516E2,4.0762238E2,-7.5273346E1,3.8023145E2,1.2829921E3,6.827666E1,8.661377E0,1.4620375E2,3.416714E1,2.6205698E2,7.254987E1,3.777046E1,1.3936067E2,5.8152374E2,1.6247905E2,1.4477293E2,2.7301855E2,-1.329029E2,-9.8905525E1,8.265811E0,-1.0985774E2,-7.2900505E1,-4.49656E1,2.021833E2,-1.8884626E1,-1.1495843E1,8.27763E1,8.57367E1,8.365947E0,1.1924642E-1,8.5917534E1],"categories":[],"categories_nodes":[],"categories_segments":[],"categories_sizes":[],"default_left":[0,0,0,0,0,0,0,0,0,0,0,0,0,0,0,0,0,0,0,0,0,0,0,0,0,0,0,0,0,0,0,0,0,0,0,0,0,0,0,0,0,0,0,0,0,0,0,0,0,0,0,0,0,0,0],"id":32,"left_children":[1,3,5,7,9,11,13,15,17,19,-1,21,23,25,27,29,31,33,35,37,39,41,43,45,47,49,-1,51,53,-1,-1,-1,-1,-1,-1,-1,-1,-1,-1,-1,-1,-1,-1,-1,-1,-1,-1,-1,-1,-1,-1,-1,-1,-1,-1],"loss_changes":[3.0218918E9,3.2532685E8,6.1427776E8,1.0069184E7,1.5149312E7,1.1834816E8,3.9432184E7,1.0521888E7,3.955315E7,3.374925E7,0E0,7.372787E7,2.0055584E7,4.8537296E7,3.0403208E7,9.13598E5,1.271048E6,1.249536E7,2.600208E7,1.2014611E8,5.0064064E7,1.6812096E7,9.773845E7,9.160336E6,3.2439932E7,3.5386484E7,0E0,2.4716732E7,3.734997E7,0E0,0E0,0E0,0E0,0E0,0E0,0E0,0E0,0E0,0E0,0E0,0E0,0E0,0E0,0E0,0E0,0E0,0E0,0E0,0E0,0E0,0E0,0E0,0E0,0E0,0E0],"parents":[2147483647,0,0,1,1,2,2,3,3,4,4,5,5,6,6,7,7,8,8,9,9,11,11,12,12,13,13,14,14,15,15,16,16,17,17,18,18,19,19,20,20,21,21,22,22,23,23,24,24,25,25,27,27,28,28],"right_children":[2,4,6,8,10,12,14,16,18,20,-1,22,24,26,28,30,32,34,36,38,40,42,44,46,48,50,-1,52,54,-1,-1,-1,-1,-1,-1,-1,-1,-1,-1,-1,-1,-1,-1,-1,-1,-1,-1,-1,-1,-1,-1,-1,-1,-1,-1],"split_conditions":[1E0,4.4E1,4.8E1,2.2E1,6E1,3.4E1,5.2E1,1E0,2.6E1,4.6E1,3.577141E2,2E0,4E0,5.1E1,1E0,2.1E1,3E0,3E0,2.8E1,1E0,5.2E1,1E0,2.8E1,3.7E1,3.6E1,5E1,-7.5273346E1,5.4E1,5.4E1,6.827666E1,8.661377E0,1.4620375E2,3.416714E1,2.6205698E2,7.254987E1,3.777046E1,1.3936067E2,5.8152374E2,1.6247905E2,1.4477293E2,2.7301855E2,-1.329029E2,-9.8905525E1,8.265811E0,-1.0985774E2,-7.2900505E1,-4.49656E1,2.021833E2,-1.8884626E1,-1.1495843E1,8.27763E1,8.57367E1,8.365947E0,1.1924642E-1,8.5917534E1],"split_indices":[5,0,0,0,0,0,0,3,0,0,0,2,2,0,2,0,2,2,0,2,0,3,0,0,0,0,0,0,0,0,0,0,0,0,0,0,0,0,0,0,0,0,0,0,0,0,0,0,0,0,0,0,0,0,0],"split_type":[0,0,0,0,0,0,0,0,0,0,0,0,0,0,0,0,0,0,0,0,0,0,0,0,0,0,0,0,0,0,0,0,0,0,0,0,0,0,0,0,0,0,0,0,0,0,0,0,0,0,0,0,0,0,0],"sum_hessian":[8.4E2,1.69E2,6.71E2,1.06E2,6.3E1,4.57E2,2.14E2,2.5E1,8.1E1,5E1,1.3E1,2.59E2,1.98E2,6.1E1,1.53E2,1.5E1,1E1,1.1E1,7E1,8E0,4.2E1,1.9E2,6.9E1,1.88E2,1E1,4.3E1,1.8E1,8.7E1,6.6E1,1.4E1,1E0,9E0,1E0,9E0,2E0,8E0,6.2E1,3E0,5E0,1.7E1,2.5E1,9E1,1E2,3.3E1,3.6E1,4.1E1,1.47E2,1E0,9E0,2.9E1,1.4E1,1.1E1,7.6E1,1.7E1,4.9E1],"tree_param":{"num_deleted":"0","num_feature":"7","num_nodes":"55","size_leaf_vector":"1"}},{"base_weights":[4.0044304E1,3.6103801E3,-9.009931E2,1.1464426E3,6.0332905E3,-1.6303394E3,8.063337E1,5.58942E2,2.0630923E3,4.3343843E3,6.63866E3,-1.9573696E3,-9.529575E2,-2.1101024E2,6.630718E2,-4.6854297E2,7.976841E2,1.6781267E3,1.7899554E2,1.7169556E2,2.9656052E2,5.389051E3,7.4261714E3,-2.3910017E3,-1.6195676E3,1.512569E3,-1.1555413E3,2.0248026E1,-1.4450625E3,5.5534435E1,1.915551E3,-3.2432453E1,3.331294E1,2.5296544E2,2.9292234E1,3.3050083E1,9.31243E1,4.5323373E2,2.2926944E2,4.817552E2,3.280368E2,-1.5050005E2,-9.580782E1,1.7282021E0,-9.2532234E1,2.0685355E2,-1.7292259E2,-6.790076E1,1.0372542E1,-7.393904E0,2.647679E2,-8.0046364E1,-1.7277678E1,7.383314E1,-2.193217E1,4.9829272E2,6.5750626E1],"categories":[],"categories_nodes":[],"categories_segments":[],"categories_sizes":[],"default_left":[0,0,0,0,0,0,0,0,0,0,0,0,0,0,0,0,0,0,0,0,0,0,0,0,0,0,0,0,0,0,0,0,0,0,0,0,0,0,0,0,0,0,0,0,0,0,0,0,0,0,0,0,0,0,0,0,0],"id":33,"left_children":[1,3,5,7,9,11,13,15,17,19,21,23,25,27,29,31,33,35,-1,-1,-1,37,39,41,43,45,47,49,51,53,55,-1,-1,-1,-1,-1,-1,-1,-1,-1,-1,-1,-1,-1,-1,-1,-1,-1,-1,-1,-1,-1,-1,-1,-1,-1,-1],"loss_changes":[2.818782E9,1.03781555E9,4.7551923E8,4.6237696E7,6.173056E7,8.253549E7,4.8381416E7,1.3865462E7,1.3845824E7,1.701808E7,2.1977088E7,3.362701E7,6.468179E7,5.425237E7,7.218178E7,2.6803992E6,3.766113E7,4.206864E6,0E0,0E0,0E0,4.114579E7,5.607424E6,2.6564544E7,5.625203E7,1.447724E8,3.2570256E7,1.4357136E8,4.588036E6,4.6296584E7,1.3676483E8,0E0,0E0,0E0,0E0,0E0,0E0,0E0,0E0,0E0,0E0,0E0,0E0,0E0,0E0,0E0,0E0,0E0,0E0,0E0,0E0,0E0,0E0,0E0,0E0,0E0,0E0],"parents":[2147483647,0,0,1,1,2,2,3,3,4,4,5,5,6,6,7,7,8,8,9,9,10,10,11,11,12,12,13,13,14,14,15,15,16,16,17,17,21,21,22,22,23,23,24,24,25,25,26,26,27,27,28,28,29,29,30,30],"right_children":[2,4,6,8,10,12,14,16,18,20,22,24,26,28,30,32,34,36,-1,-1,-1,38,40,42,44,46,48,50,52,54,56,-1,-1,-1,-1,-1,-1,-1,-1,-1,-1,-1,-1,-1,-1,-1,-1,-1,-1,-1,-1,-1,-1,-1,-1,-1,-1],"split_conditions":[1E0,3.002E1,4.3E1,4.3E1,2.8E1,2E0,5.7E1,2E1,6E1,3.828E1,3.443E1,2.4E1,2E1,3.685E1,3.458E1,3E0,1.78E1,2.2895E1,1.7899554E2,1.7169556E2,2.9656052E2,3.04E1,3.4E1,2.831E1,2.6E1,3.0685E1,4E0,3.667E1,3E0,2.5175E1,3.496E1,-3.2432453E1,3.331294E1,2.5296544E2,2.9292234E1,3.3050083E1,9.31243E1,4.5323373E2,2.2926944E2,4.817552E2,3.280368E2,-1.5050005E2,-9.580782E1,1.7282021E0,-9.2532234E1,2.0685355E2,-1.7292259E2,-6.790076E1,1.0372542E1,-7.393904E0,2.647679E2,-8.0046364E1,-1.7277678E1,7.383314E1,-2.193217E1,4.9829272E2,6.5750626E1],"split_indices":[5,1,0,0,0,2,0,0,0,1,1,0,0,1,1,2,1,1,0,0,0,1,0,1,0,1,2,1,2,1,1,0,0,0,0,0,0,0,0,0,0,0,0,0,0,0,0,0,0,0,0,0,0,0,0,0,0],"split_type":[0,0,0,0,0,0,0,0,0,0,0,0,0,0,0,0,0,0,0,0,0,0,0,0,0,0,0,0,0,0,0,0,0,0,0,0,0,0,0,0,0,0,0,0,0,0,0,0,0,0,0,0,0,0,0,0,0],"sum_hessian":[8.37E2,1.74E2,6.63E2,8.7E1,8.7E1,3.8E2,2.83E2,5.4E1,3.3E1,2.5E1,6.2E1,2.55E2,1.25E2,1.89E2,9.4E1,1E1,4.4E1,2.8E1,5E0,1.8E1,7E0,2.7E1,3.5E1,1.09E2,1.46E2,9E0,1.16E2,1.6E2,2.9E1,6.4E1,3E1,9E0,1E0,1E0,4.3E1,5E0,2.3E1,3E0,2.4E1,7E0,2.8E1,4.5E1,6.4E1,1.8E1,1.28E2,6E0,3E0,1.01E2,1.5E1,1.56E2,4E0,2.5E1,4E0,1.6E1,4.8E1,1E0,2.9E1],"tree_param":{"num_deleted":"0","num_feature":"7","num_nodes":"57","size_leaf_vector":"1"}},{"base_weights":[-8.818439E0,3.5541963E3,-9.560719E2,1.1483895E3,5.946953E3,-1.4774037E3,3.564538E2,5.970176E2,1.9435479E3,4.864455E3,3.687719E2,-1.8026168E3,-8.339607E2,1.2703204E3,5.359933E1,2.7355618E2,1.5961223E3,1.5930077E3,1.7153737E2,3.4118374E3,6.2417183E3,-2.3535188E3,-1.3572874E3,1.4285947E3,-9.773265E2,7.2013434E2,5.747857E3,-4.9909988E2,1.0916018E3,-2.2614365E1,4.4641537E1,1.7092943E2,2.0314714E1,1.15078285E2,5.9926327E1,1.3056088E2,1.9658134E2,1.6428691E2,3.3149088E2,-1.2693074E2,-8.4102036E1,2.4878914E1,-7.729419E1,-9.65402E1,1.9949974E2,-6.0006325E1,2.348352E1,-2.4035086E1,8.4541275E1,3.8386066E2,-4.9239185E1,9.998502E0,-4.781952E1,1.0574581E2,2.2494818E1],"categories":[],"categories_nodes":[],"categories_segments":[],"categories_sizes":[],"default_left":[0,0,0,0,0,0,0,0,0,0,0,0,0,0,0,0,0,0,0,0,0,0,0,0,0,0,0,0,0,0,0,0,0,0,0,0,0,0,0,0,0,0,0,0,0,0,0,0,0,0,0,0,0,0,0],"id":34,"left_children":[1,3,5,7,9,11,13,15,17,19,-1,21,23,25,27,29,31,33,-1,35,37,39,41,43,45,47,49,51,53,-1,-1,-1,-1,-1,-1,-1,-1,-1,-1,-1,-1,-1,-1,-1,-1,-1,-1,-1,-1,-1,-1,-1,-1,-1,-1],"loss_changes":[2.8283384E9,1.00631654E9,4.5350765E8,3.785975E7,1.0019994E8,9.76841E7,5.2241176E7,1.701465E7,1.3302416E7,8.473792E7,0E0,7.384019E7,5.3620256E7,1.1164426E8,8.258437E7,1.9282662E7,2.6800522E7,5.906416E6,0E0,1.385984E6,8.043712E6,1.3005952E7,6.2337664E7,9.375154E7,4.956709E7,5.093533E7,7.25087E7,3.024098E7,3.188184E7,0E0,0E0,0E0,0E0,0E0,0E0,0E0,0E0,0E0,0E0,0E0,0E0,0E0,0E0,0E0,0E0,0E0,0E0,0E0,0E0,0E0,0E0,0E0,0E0,0E0,0E0],"parents":[2147483647,0,0,1,1,2,2,3,3,4,4,5,5,6,6,7,7,8,8,9,9,11,11,12,12,13,13,14,14,15,15,16,16,17,17,19,19,20,20,21,21,22,22,23,23,24,24,25,25,26,26,27,27,28,28],"right_children":[2,4,6,8,10,12,14,16,18,20,-1,22,24,26,28,30,32,34,-1,36,38,40,42,44,46,48,50,52,54,-1,-1,-1,-1,-1,-1,-1,-1,-1,-1,-1,-1,-1,-1,-1,-1,-1,-1,-1,-1,-1,-1,-1,-1,-1,-1],"split_conditions":[1E0,3.021E1,5E1,4.3E1,4.4E1,2E0,2.74E1,2.805E1,6E1,3.54E1,3.687719E2,2.7E1,2E1,2.679E1,5.9E1,1E0,2.5E1,4.6E1,1.7153737E2,1E0,2.1E1,3.53E1,2.9E1,1.9E1,4E0,2.46E1,5.6E1,3.22E1,6.1E1,-2.2614365E1,4.4641537E1,1.7092943E2,2.0314714E1,1.15078285E2,5.9926327E1,1.3056088E2,1.9658134E2,1.6428691E2,3.3149088E2,-1.2693074E2,-8.4102036E1,2.4878914E1,-7.729419E1,-9.65402E1,1.9949974E2,-6.0006325E1,2.348352E1,-2.4035086E1,8.4541275E1,3.8386066E2,-4.9239185E1,9.998502E0,-4.781952E1,1.0574581E2,2.2494818E1],"split_indices":[5,1,0,0,0,2,1,1,0,1,0,0,0,1,0,3,0,0,0,2,0,1,0,0,2,1,0,1,0,0,0,0,0,0,0,0,0,0,0,0,0,0,0,0,0,0,0,0,0,0,0,0,0,0,0],"split_type":[0,0,0,0,0,0,0,0,0,0,0,0,0,0,0,0,0,0,0,0,0,0,0,0,0,0,0,0,0,0,0,0,0,0,0,0,0,0,0,0,0,0,0,0,0,0,0,0,0,0,0,0,0,0,0],"sum_hessian":[8.36E2,1.75E2,6.61E2,8.8E1,8.7E1,4.73E2,1.88E2,5.3E1,3.5E1,5.2E1,3.5E1,3.13E2,1.6E2,4.6E1,1.42E2,4.1E1,1.2E1,3E1,5E0,2.7E1,2.5E1,1.38E2,1.75E2,9E0,1.51E2,4.2E1,4E0,9.3E1,4.9E1,1.9E1,2.2E1,4E0,8E0,9E0,2.1E1,1.3E1,1.4E1,4E0,2.1E1,1.06E2,3.2E1,1.6E1,1.59E2,4E0,5E0,1.31E2,2E1,1.9E1,2.3E1,3E0,1E0,3.7E1,5.6E1,1.8E1,3.1E1],"tree_param":{"num_deleted":"0","num_feature":"7","num_nodes":"55","size_leaf_vector":"1"}},{"base_weights":[4.3445873E1,-8.128779E2,3.3722808E3,-1.4729043E3,8.035386E1,1.0218088E3,5.5583545E3,-1.9225974E3,-1.1113845E3,-2.9083237E2,8.070753E2,1.6568687E2,1.5419261E3,3.7450007E3,6.143288E3,-2.0739473E3,-7.0673206E2,-1.0262166E3,-2.659511E3,-8.12981E1,-1.2868103E3,4.1140417E2,1.5301387E3,-8.393692E2,8.278344E2,2.455253E2,1.3857169E3,1.5422076E2,2.6613925E2,5.30031E3,7.5621445E3,-1.2869328E2,-8.074024E1,1.3526476E2,-8.343485E1,-5.539739E1,2.5321416E2,-1.3981705E2,-3.2280346E1,-1.222958E1,2.5638474E2,-8.250946E1,-4.131807E1,-1.562757E1,5.509834E1,4.8319174E2,5.0334095E1,-8.550503E1,-2.7586948E1,1.9294511E2,2.4166794E1,1.4037663E1,8.342138E1,1.927353E2,3.0874103E2,4.669686E2,2.7383167E2],"categories":[],"categories_nodes":[],"categories_segments":[],"categories_sizes":[],"default_left":[0,0,0,0,0,0,0,0,0,0,0,0,0,0,0,0,0,0,0,0,0,0,0,0,0,0,0,0,0,0,0,0,0,0,0,0,0,0,0,0,0,0,0,0,0,0,0,0,0,0,0,0,0,0,0,0,0],"id":35,"left_children":[1,3,5,7,9,11,13,15,17,19,21,23,25,27,29,31,33,35,37,39,41,43,45,47,49,-1,51,-1,-1,53,55,-1,-1,-1,-1,-1,-1,-1,-1,-1,-1,-1,-1,-1,-1,-1,-1,-1,-1,-1,-1,-1,-1,-1,-1,-1,-1],"loss_changes":[2.4798784E9,4.0809152E8,9.0893875E8,6.2567296E7,7.981068E7,3.8484224E7,7.457715E7,3.0921984E7,2.6673472E7,4.079891E7,2.7980016E7,2.3321704E7,2.1610392E7,9.638848E6,4.125056E7,3.1650944E7,7.3441576E7,1.1163891E8,1.22584E6,1.3990112E8,4.32514E6,3.334024E7,1.3928894E8,2.562753E6,2.0063018E7,0E0,1.6087984E7,0E0,0E0,3.435085E7,3.4099456E7,0E0,0E0,0E0,0E0,0E0,0E0,0E0,0E0,0E0,0E0,0E0,0E0,0E0,0E0,0E0,0E0,0E0,0E0,0E0,0E0,0E0,0E0,0E0,0E0,0E0,0E0],"parents":[2147483647,0,0,1,1,2,2,3,3,4,4,5,5,6,6,7,7,8,8,9,9,10,10,11,11,12,12,13,13,14,14,15,15,16,16,17,17,18,18,19,19,20,20,21,21,22,22,23,23,24,24,26,26,29,29,30,30],"right_children":[2,4,6,8,10,12,14,16,18,20,22,24,26,28,30,32,34,36,38,40,42,44,46,48,50,-1,52,-1,-1,54,56,-1,-1,-1,-1,-1,-1,-1,-1,-1,-1,-1,-1,-1,-1,-1,-1,-1,-1,-1,-1,-1,-1,-1,-1,-1,-1],"split_conditions":[1E0,4.3E1,3.002E1,1E0,5.7E1,3.2E1,2.8E1,3.7E1,4.169E1,3.685E1,3.458E1,2.37E1,1.78E1,3.828E1,3.6385E1,1E0,3.8E1,4.1325E1,3E0,3.667E1,1E0,6E1,3.496E1,1.83E1,2.46E1,2.455253E2,3.9E1,1.5422076E2,2.6613925E2,4.5E1,2E0,-1.2869328E2,-8.074024E1,1.3526476E2,-8.343485E1,-5.539739E1,2.5321416E2,-1.3981705E2,-3.2280346E1,-1.222958E1,2.5638474E2,-8.250946E1,-4.131807E1,-1.562757E1,5.509834E1,4.8319174E2,5.0334095E1,-8.550503E1,-2.7586948E1,1.9294511E2,2.4166794E1,1.4037663E1,8.342138E1,1.927353E2,3.0874103E2,4.669686E2,2.7383167E2],"split_indices":[6,0,1,2,0,0,0,0,1,1,1,1,1,1,1,3,0,1,2,1,3,0,1,1,1,0,0,0,0,0,2,0,0,0,0,0,0,0,0,0,0,0,0,0,0,0,0,0,0,0,0,0,0,0,0,0,0],"split_type":[0,0,0,0,0,0,0,0,0,0,0,0,0,0,0,0,0,0,0,0,0,0,0,0,0,0,0,0,0,0,0,0,0,0,0,0,0,0,0,0,0,0,0,0,0,0,0,0,0,0,0,0,0,0,0,0,0],"sum_hessian":[8.68E2,6.91E2,1.77E2,3.97E2,2.94E2,8.6E1,9.1E1,1.75E2,2.22E2,1.95E2,9.9E1,3.3E1,5.3E1,2.4E1,6.7E1,1.55E2,2E1,2.12E2,1E1,1.62E2,3.3E1,6.5E1,3.4E1,1.3E1,2E1,1E0,5.2E1,1.9E1,5E0,4.5E1,2.2E1,7.2E1,8.3E1,4E0,1.6E1,2.1E2,2E0,9E0,1E0,1.58E2,4E0,1.7E1,1.6E1,3.2E1,3.3E1,1E0,3.3E1,2E0,1.1E1,1E0,1.9E1,1.1E1,4.1E1,1.9E1,2.6E1,1E1,1.2E1],"tree_param":{"num_deleted":"0","num_feature":"7","num_nodes":"57","size_leaf_vector":"1"}},{"base_weights":[1.12707596E2,3.1710322E3,-6.9445557E2,9.823796E2,5.5026206E3,-1.2881477E3,3.7411502E2,4.0298102E2,1.8724724E3,3.9025747E3,6.261527E3,-1.6558256E3,-5.9322815E2,1.0585814E3,1.6376595E2,4.403496E1,1.1782511E3,1.5515908E3,1.6091408E2,1.3970801E2,4.9697515E3,5.503199E3,7.967409E3,-2.1562097E3,-1.194968E3,4.1635315E2,-8.5972705E2,4.1022043E2,5.5385054E3,-1.9711877E2,8.274952E2,-2.8467665E1,4.1268124E1,1.2254287E2,1.688549E1,1.1853279E2,5.8181335E1,3.6621735E2,1.8308699E2,5.109021E2,2.506003E2,5.104178E2,2.6695917E2,-5.26833E1,-1.1885813E2,2.7859821E1,-7.0578636E1,8.504584E1,-1.2898894E2,-9.704707E1,-1.9305735E1,-4.4346204E0,1.3464502E2,-8.120308E1,3.501472E2,1.9609522E0,-4.5371975E1,9.274616E0,7.628219E1],"categories":[],"categories_nodes":[],"categories_segments":[],"categories_sizes":[],"default_left":[0,0,0,0,0,0,0,0,0,0,0,0,0,0,0,0,0,0,0,0,0,0,0,0,0,0,0,0,0,0,0,0,0,0,0,0,0,0,0,0,0,0,0,0,0,0,0,0,0,0,0,0,0,0,0,0,0,0,0],"id":36,"left_children":[1,3,5,7,9,11,13,15,17,19,21,23,25,27,29,31,33,35,-1,-1,37,39,41,43,45,47,49,51,53,55,57,-1,-1,-1,-1,-1,-1,-1,-1,-1,-1,-1,-1,-1,-1,-1,-1,-1,-1,-1,-1,-1,-1,-1,-1,-1,-1,-1,-1],"loss_changes":[2.0807355E9,8.927287E8,4.23628E8,4.669153E7,7.877837E7,1.0863008E8,3.423711E7,1.5810085E7,1.0552968E7,2.1599936E7,2.8596224E7,6.1993024E7,4.071581E7,1.6038603E8,4.4236584E7,1.9640204E7,1.842653E7,7.092248E6,0E0,0E0,1.629792E7,4.6054784E7,3.384147E7,2.9895424E7,5.695653E7,1.2754708E8,6.018767E7,5.7181756E7,8.479712E7,2.0180668E7,2.8850868E7,0E0,0E0,0E0,0E0,0E0,0E0,0E0,0E0,0E0,0E0,0E0,0E0,0E0,0E0,0E0,0E0,0E0,0E0,0E0,0E0,0E0,0E0,0E0,0E0,0E0,0E0,0E0,0E0],"parents":[2147483647,0,0,1,1,2,2,3,3,4,4,5,5,6,6,7,7,8,8,9,9,10,10,11,11,12,12,13,13,14,14,15,15,16,16,17,17,20,20,21,21,22,22,23,23,24,24,25,25,26,26,27,27,28,28,29,29,30,30],"right_children":[2,4,6,8,10,12,14,16,18,20,22,24,26,28,30,32,34,36,-1,-1,38,40,42,44,46,48,50,52,54,56,58,-1,-1,-1,-1,-1,-1,-1,-1,-1,-1,-1,-1,-1,-1,-1,-1,-1,-1,-1,-1,-1,-1,-1,-1,-1,-1,-1,-1],"split_conditions":[1E0,3.021E1,4.7E1,4.3E1,3.1E1,2E0,2.74E1,2.8025E1,6E1,1E0,3.71E1,2.7E1,2.8E1,2.679E1,5.8E1,3.2E1,